{"cost": "CrossEntropyCost", "weights": [[[0.013390776211004788, -0.003708616168195278, -0.006281414119454457, 0.005067697615267156, -0.0008439225452981332, 0.0024718150438340987, -0.014492948402975053, 0.007883569353360277, -0.002970789652830585, -9.901887049303461e-05, -0.0032612520776325207, -0.011868723267607911, 0.004400388418202627, -0.019042336467438373, -0.010014566686197886, -0.00636366519748469, -0.007675376429209496, 0.003573640109137587, -0.003100374856471741, -0.007426260955786754, 0.0043041507601287105, 0.007882323753508438, -0.005926238247479617, 0.0005547428562588421, -0.006911825525720785, -0.007266674449148085, 0.0006583160070336258, -0.00047960394625571343, -0.011331523626259344, -0.003968332248395144, -0.013617899615350605, -0.0026402339657775444, 0.0016909537842113816, -0.002676160316032868, -0.004340223904661117, -0.004521348826765311, -0.012411946216280981, 0.002111365509452108, 0.0015887740627515286, -0.013538129038780218, 0.011054315649177696, 0.006779450400866047, -0.00851356392425124, -0.003243758345203978, -0.010443713824965999, 0.004119991149654033, -0.004186144618028102, 0.001541762568628727, -0.009371961939686682, -0.00116452074844878, 0.0074490588442488554, -0.0013445408174805498, -0.0016911040437369805, -0.01175491803554867, 0.007475958740054837, -0.0166900337703426, 0.005352107120513548, 0.0016489636301083202, -0.016710559737436598, -0.0032121089461851415, -0.0074219726710171244, 0.007029943952548267, 0.006004691258711145, -0.008126813349103607, 0.004078796280748179, 0.010503830206188825, -0.0058039978175280305, 0.0008547272771800556, -0.011131017122175258, 7.464765304948372e-05, -0.009524708230342273, 0.005100314498994445, 0.007009378800333691, 0.006986007096702996, 0.007780162808133358, 0.0039229914555609, 0.010702753349520283, -0.008117807934249792, -0.0026797412145571887, -0.010394940261905409, -0.0008647039561054147, 0.0003147873385032803, 0.012666777709791775, -0.007385777631016037, -0.0021510693135480033, 0.0034196988208584867, 0.01122283512852725, -0.014138304204385988, 0.012897453764024772, -0.01826733272303743, -0.0060199670074299536, 0.0005138214582753126, 0.00034174903177814514, 0.0066324796899448115, 0.0015095376320455184, -0.007280344176603264, 0.002089926233448969, -0.010324683463333475, 0.007738081399349932, -0.00030308668288192716, -0.0006975518242374498, -0.0006789481539119468, 0.006850662097841833, 0.0003528448734616929, -0.007685703459576506, -0.011611494545141396, -0.0009537414681533836, 0.004423552394236395, 0.00038272392326393255, 0.016454461269767944, -0.011825527635846328, -0.013818890190529825, -0.0010683649494833763, -0.0008299533839180107, -0.008366140542366693, -0.0044752029256057745, 0.003635821516310675, -0.0030290397848944032, -0.0020339619506873426, -0.010974957695889666, -0.0004917789596876195, -0.015573510853313422, -0.01009263436997534, -0.007534818401993917, -0.0058988352015124906, -0.0047525790844812925, -0.00021496293022777764, -0.0035120589961378634, 0.004387823365198374, 0.012555491400960291, -0.00044969994851751547, -0.008479580444831077, 0.007643452590362352, 0.008617664174817423, -0.0004068681248021632, -0.004158099763465963, -0.00991222921549711, 0.014066139499947273, 0.0014071897065491168, -0.01640877473079406, -0.0010025976556987536, 0.008718489232847943, -0.01426880441386057, -0.002214420704797553, 0.00020089353356001415, 0.0059509455936845295, 0.010772394661585138, 0.014939377362733083, -0.017029147862247313, -0.005516491977309999, -0.020895231683339555, 0.011893337198565111, 0.015055346835425523, -0.0003313453139454848, 0.005869230716299794, -0.008618436446616511, 0.0118188415195337, 0.0005535764727442464, -0.012516051851459589, 0.004287770419482593, 0.0005629121040990199, 0.005451701638775163, -0.015439708261527267, -0.020307516636678156, 0.0023100701195686406, 0.007516772775363877, 0.002159445474932652, -0.010669978859331835, -0.01020924244031259, -0.007177971559023259, 0.0008503735912461827, 0.004937647742198975, -0.004304898807862892, -0.002705272008073846, 0.005834566325218453, -0.010399025670498638, 0.00011131445662428898, -0.01108193295056802, 0.013607031829849188, -0.012728426548694835, -0.005184712190365062, -0.0007801158669842879, -0.0037593753745685417, 0.002841352255426173, -0.009312715930915927, 0.006710052793379593, -0.010825857602759534, 0.0023464212680826386, 0.004833591006912596, -0.003949372472429241, 0.0015436015670978324, 0.009709186740592405, -0.008869072394697062, 0.010971572999725787, 0.014218254921300631, 0.0008474781341605549, -0.008976269554309324, -0.008145985900552962, 0.007973675074984117, -0.014707582311514434, -0.00011223384018914839, 0.004936530313874632, -0.000550209254180136, -0.0003368826906738742, -0.003430033698620498, 0.008790667839206756, 0.002129901647299538, -0.007284123145599898, 0.01391110935296055, 0.013359257718954918, 0.00466839797970996, 0.006688448352931802, -0.007105799423619689, 0.026420955095741418, -0.0005171885179749269, -0.0020877978010234214, -0.0003543089749201845, 0.009759096513127792, 0.008466728939793307, 0.005398406512759552, 0.007717211030751426, 0.00703512204344919, 0.004910316404554077, -0.006099610984728749, 0.007332588034452937, 0.0033351433958956934, -3.887400800466478e-05, -0.0007347397847439841, 0.010953939632763568, 0.015153447755007089, -0.0004301763787913707, 0.005212722792436385, 0.001889815233072462, -0.010453664986735152, -0.008732021836534537, 0.002000364195868764, 0.007631935956251682, 0.004852448066879658, -0.007982651314299812, -0.008827127267879127, -0.0061122423528321285, -0.008043742595058032, -0.0064405133811721435, -0.003925987921018714, 0.0047177968982664445, -0.0006581113658690592, 0.0006168479006245435, -0.0004903761308006522, 0.009842210042472519, -0.01721934476213391, 0.004212588524710983, -0.013265083081275436, -0.004651346357456271, -0.007651884446556312, 0.000961608466470113, -0.007095064648642241, -0.015835909721682268, -0.002007654842060591, 0.005337321349212018, 0.0024339561953980117, 0.010726802638288988, -0.014133752385688488, 0.0043911307534157795, -0.00015800100202933921, 0.0051836970568759485, 0.01838096026392979, -0.00213396402755509, -0.0011047736561937247, 0.004065205902911059, 0.00833990166228456, 0.0012547471290740722, -0.006238463600947641, -0.0024862492774354885, -0.009823344427545873, 0.0029909221534709742, 0.0019965516883615427, 0.014523971594246742, -0.0006590705062383225, 0.0005263299190934514, 0.013048083292393401, 0.002538166526389172, 0.0005144148140638859, -0.004599468602063934, -0.0025892403628019513, 0.015084113206607866, -0.0017100801371382945, -0.006203516997090774, 0.0035354872344905016, 0.004515650692094058, 0.000743626796175215, 0.002486485223420263, -0.004295124272041712, -0.0012619930384434746, -0.0030935732549309263, -0.005502808870571817, 0.005861494554718543, -0.00011123961049949789, -0.005453333175382821, -0.0004322993652993929, 0.004087054256784975, -0.012193240546387357, 0.012942994935576942, 0.003990144747160077, -0.004370004450559126, -0.004686152441913754, 0.0004104122920414323, -0.001207089484459732, -0.014444324767187782, -0.013270404452881999, 0.007264080176839722, -0.011361806560223788, -0.009454926963269779, -0.0023099117039868757, 0.014763134991354896, 0.009977810695844776, -0.005980205649875341, -0.006548663389441865, -0.0030322329227898005, -0.005973598082306407, -0.0033329796219996027, 0.013331244403569139, -0.0028175348967477316, 0.0023976928404125766, -0.0009728958084867452, -0.007887999891911114, 0.0077208637319502475, -0.011310090745511113, 0.004420657644955641, 0.00911161267278534, -0.0061028825039884885, -0.001957445434371102, -0.00011044817572602073, 0.0055375764566292455, 0.006046651905167165, -0.002015027049495074, -0.016195483143324356, -0.00715894930426367, 0.012350740294263654, 0.00021120116311953998, 0.001873015644240569, 0.0007690391055474624, -0.01451886469181925, -0.009276982534423278, 0.009431657763899058, -0.005293890615987022, -0.01572513841979147, 0.01665008778807011, -0.0008946317919268176, 0.004550129573603534, 0.0057709184613504655, 0.01479323249688015, -0.0001359354913538557, 0.006714904308987814, -0.0006352012133030906, 0.011179084218566978, 0.008851137504012467, -0.006593123384018572, 0.0017311354948796195, -0.008665557915328916, -0.00362164841140037, -0.006913193453129285, -0.02335369911300602, 0.0027742730621602356, 0.0026487880256891552, 0.0061811101943916305, 0.007603689599111362, -0.002562805038410775, -0.013907109318031277, 0.0020958526672206915, -0.010363609546850743, -0.001639694614122272, 0.001122995077179829, -0.009739340700568054, -0.011525860248742073, 0.008109150409566168, -0.009456555674896307, -0.0058686893238663225, 0.0016755264535725633, -0.01792405009964828, 0.002489871447035694, 0.0007328921463142621, -0.004016934875380915, -0.005283288141532597, -0.00011335559583611469, 0.005134343822545875, -0.0051015641981960015, -0.010001092085869785, -0.0068781087053355235, 0.004085457184516446, -0.009422279129541087, -0.0029162693294450598, -0.006191753566143347, 0.008928491126448966, -0.002484275826162022, 0.010683566612622312, 0.0012417081221878002, 0.004935468631855451, 0.0006936811542331419, 0.00649111410220015, -0.007414313215512188, -7.94861012449884e-05, -0.0049448716231624106, -0.007110130760134825, 0.0030569301762602757, -0.0019562351535295326, -0.004263898419687539, 0.0027219609116796153, -0.018802148614478726, -0.00022963065819835276, 0.005136715298996499, -0.009329443761952896, 0.014778503664333281, 0.0011767729506233673, 0.010443926229953321, -1.0171632254084443e-05, 0.003533044817884736, 0.006122250477694414, -0.0008438698255209613, -0.005452818804842969, -0.003690275783793514, -0.0010966017496650297, -0.01707931491229569, 0.00229948259393869, 0.0007030613318194623, 0.002937468200914461, -0.005000660568521288, -0.010795834971333068, -0.013680921490316543, -0.002197547448385732, 0.008166288125220706, -0.0019948626253773177, 0.0024982893983866903, -0.0026352278299715563, -0.003422493253550704, -0.0007274194258377849, -0.007036231565177597, 0.00014859624801102044, 0.015742813516402908, 0.012255753917865883, -0.0038517839544373197, -0.0006864608847426836, 0.0026804984817335523, 0.0017038396673339628, 0.0018786272397160176, 0.0036482348392705513, -0.008238016789278726, -0.0018924971463432534, -0.0023106968711259423, 0.001643753168343424, -0.005045720256692499, 0.016551026434121187, -0.002259330935415103, -0.0031671670098760095, 0.011568308046646235, -0.006167248208460436, -0.011133378841130269, -0.0012929828876647451, 0.00183762988534638, -0.014374036992572614, -0.01444038033880472, -9.875010339807735e-05, 0.016408063642086666, -0.000956563904675197, 0.0008687107683794155, -0.004040548849648172, -0.001796488868406703, -0.0019911348311630384, 0.005570881049358374, -0.009842783022674039, -0.0003114624318084355, -0.0027599066381328407, 0.000195414099829941, -0.004915859549031852, 0.007722198558392581, -0.010212659923626495, -0.0033291694561041695, -0.006974259036464281, 0.004748529163668495, -0.009301150348817889, 0.0070705427859185715, -0.013474720400386156, 0.004107406424705247, -0.0012242217090816631, 0.0007160245493863508, -0.0006356635165980693, -0.014365096022068861, 0.004648769134594533, -0.005030610657094336, -0.009566900662324919, 0.008359052119448547, -0.0015956905108950126, 0.004387080729767965, 0.0019587320384045256, -0.002854162990935107, 0.00045350798414945797, -0.005704639665073699, -0.0012723823123211874, -0.0005428527717846822, -0.008254938698447338, -0.004091885190061096, -0.003097213719665605, -0.005909005847508186, 0.0020946903366894014, -0.002318652521753597, -0.012856104477211104, 0.005039970145129339, -0.004222203739395026, -0.010464377559260555, 0.011175235874111929, 0.004674086584430589, 0.0013765720257633831, 0.01795953496386939, 0.010612954334173374, -0.007256942162929811, 0.006887856964796734, -0.005203425214602333, 0.0024104967191645307, -0.0032915973391163403, -0.010657770578464868, -0.014684511601930052, 0.001692386475568166, 2.2165007983007568e-05, 0.0036748037247903423, -0.005317657546916588, -0.00812331608672798, 0.01573351723997623, 0.0013860928183135831, 0.00021628891177536807, -0.004065623931197557, -0.00824045208001333, 0.004053417655828015, 0.006274078149014529, -0.010529851190425954, -0.002407528619049991, -0.0038078909235701912, 0.007917249074096962, -0.0036342465366818667, 0.002022450202314337, -0.005986987429329215, 0.009497383322400004, -0.0027981242865541198, -0.0033906194870523074, 0.014301516079203856, 0.002454001809307209, -0.0009376046888679232, 0.00841188447002887, 0.015505474601736947, 0.00939021660122991, -0.000326250285822525, -0.008264191205345297, 0.007607080041630979, -0.009169117454439636, -0.010997713208062443, -0.005261847588481029, -0.017112101489554967, -0.008247297113559381, 0.003321289200963355, -0.0032606137418364337, 0.004167000736514657, -0.007426731488935589, -0.006888051471282634, -0.004202800086401514, -0.0010985150697936557, -0.006507938393730356, -0.0004889177368168009, 0.008439679483459446, -0.0017018059251331281, 0.012571928596945387, -0.005613969494869871, -0.006424511666275972, 0.0032959977373442175, -0.003466179742847134, 0.00273353162058476, -0.005313697755448752, 0.004841762413025039, 0.006962852989440546, 0.0008054368560546478, 0.0013219086427535356, -0.001494617578962345, 0.006734477883309045, -0.008154782542729036, -0.0022066657873407664, -0.0021461964142174784, -0.012003762919090161, -0.007139103482974386, 0.011402407786939316, 0.0070116554189567385, 0.011669172619567474, 0.0015817183482601234, 0.0007705663017080799, -0.004798080667469244, -0.00725242788326898, -0.006717490019324268, -0.003601043366772215, -0.018892855082502973, 0.01252434456411232, 0.005292095489998483, -0.010553646896545558, -0.009642673855186903, -0.015867866022464764, 0.0003784091341316522, 0.00467345454906882, -0.01271827218092248, -0.004599284941850949, 0.0004053525519477121, 0.0032673732393529225, 0.0049148206576643, -0.005271850131366123, 0.004654124111969132, -0.011767173632291737, 0.007887563392591019, -0.00931974153904811, -0.0034925422288477922, -0.002887129782848801, -0.006809347389961716, -0.008934352139261208, -0.004071183949729349, -0.013726987788835633, -0.0025485002050897364, -0.006909485948733464, -0.00433538140948392, -0.006401757678538741, 0.0006993515124669893, -0.006268799827273624, 0.0056029514797506395, 0.001337851913022063, 0.010038400799463243, -0.002048117563511163, -0.00909861827061002, 0.004059195739950603, -0.0014378690809709546, -0.014286936757254929, 0.0011644659324672845, 0.0236323088570342, 0.006570170089042351, 0.0022442894816224568, 0.010463951051651477, 0.003895973071257426, -0.0009788392203732765, 0.00492159601283607, 0.0021581501263923265, 0.00037557583736163626, -0.009891129779476244, -0.005632099724688682, -0.005518637658038472, 0.00595366240456866, -0.002112610300549307, -0.010475749905296577, -0.0016141359195707904, -0.0016199202909668972, -0.0026669793891764795, -0.004366033398747529, 0.004106661345798059, 0.004834053109349786, -0.009606237697280093, 0.0164589861080452, -0.007163520739554648, -0.00274341179296487, 0.013634810984930737, -0.0035703153179658395, 0.0019415365403924704, -0.009722819484484101, 0.0038287724480828168, -0.003643317047505119, -0.00882825727363432, 0.008910266491473244, -0.002836285001873986, 0.012146460971857025, -0.011996670414034316, 0.002366703387882151, 0.007764071840640568, 0.007039542886545841, -0.0062336795396085954, -0.005116190194893511, -0.004583409170982959, -0.005218133329758958, 0.00689283795009345, 0.008165505610464462, -0.010187803004732286, 0.005722028095356478, 0.009900979982763737, -0.0045212113468576015, 0.016648771556903908, 0.0015004054227683926, -0.003523599864381899, 0.0027183850295446036, 0.00485509047330823, -0.0015701746968834133, -0.0019614781390161905, -0.010989079637221818, 0.020678011898694337, 0.0012207610715112113, 0.0038417202245195833, -0.00773812625834266, 0.0035450022067163053, 0.002702141639906995, -0.004770572561367922, 0.009173777233778003, -0.011918991149623507, 0.01067869419629969, -0.0015362215488286522, -0.0030671498254731333, -0.002129498683799648, 0.019933639519662056, 0.00475471252168993, 0.0022954240080342563, -0.009851006317631927, -0.02468688890927961, -0.005748177735910663, 0.0011765818130902114, 0.0005636626150683844, -0.006665601360265142, -0.009435525070898405, 0.0034329593681082116, -0.008883139081674343, 0.01093703256601384, -0.0006489793432397789, -0.013516523232303046, -0.0014185032274586788, 0.002034234247613394, -0.003099644558660797, 0.0068195784390815825, -0.002548138123851463, -0.01232706928866461, 0.0025177567443758525, -0.015082723268405512, 0.012584749616150841, 1.2486239564006235e-05, -0.005083536617852052, -0.0003877356299885498, -0.0019213288746731264, 0.010118486580617338, -0.00022793009443071674, 0.010890291850123883, -0.0025776107717354127, 0.005077286571667794, 0.0019039897152869727, 0.0030179018294533523, -0.006401383041177434, 0.0043112409705753875, 0.0010305831205769795, 0.015781629264194103, 0.001531545476584348, 0.000960329928915769, 0.0030596311386536456, 0.002094124712132302, 0.014207839320809606, 0.0011748172871341655, 0.012632197717112293, -0.0002984734657074555, 0.0027706517832179634, -0.002337940726178968, 0.00518528704883652, 0.0016001928918116626, -0.007268262999599082, 0.003871150380339444, 0.011131880774437098, 0.0034172265585717732, -0.007302460639468048, 0.004477942817659647, 0.007062833440114756, 0.011484476878211225, 0.008124632136277949, 0.010024666776676449, -0.0042146059651591355, 0.01238010688438844, -0.00016042885892693305, 0.0026882248008930254, -0.009040165336484253, -0.00013242721014080074, 0.0038260009808629277, -0.007304077222278168, 0.006666752145632713, 0.0025706537091738087, -0.004881515944884253, 0.00704443984944927, -0.008094690729852123, -0.010061835017979182, -2.1088662096746222e-05, 0.004160733044868336, -0.004851675518312615, 0.002099519939588222, -0.01235781369253702, -0.0009578760931662295], [0.005066944148830788, -0.0034530203869708237, 0.002942077727671187, 0.006626626236424711, 0.011419804397917866, 0.010850704282625499, 0.008759195645955481, -0.009655975814536772, -0.005265969359257491, 0.001763398140512158, -0.002969568392825751, 0.012397234332757445, -0.00564786690175157, -0.0033768300394422007, 0.011917742098223057, 0.01811474640947622, -0.004685536797786648, -0.0027558040880680383, 0.0025928443915718366, 0.007052976676521602, 0.004066560068205323, -0.010368397603661508, 0.0022440365192260875, 0.011879472066273947, 0.0010539523388648677, -0.007743069662685024, -0.004910485776189704, -0.009016503537453108, 0.0008478041316344819, 0.00106135949954657, 0.002159807175356352, -0.005876968039629889, 0.009190245397440231, -0.0015500514350639343, -0.020473814706812435, -0.005050064043221841, -0.009647446275750308, -0.012517635608135918, -0.0020361576623843386, -0.01796285498858174, 0.0051779699243080825, -0.0038013233760278726, 0.0008813956206216898, 0.007677920136573477, -0.0058014639148203815, -0.002954041402575428, -0.000952988711818001, -0.005251584920733272, 0.001695963005417768, 0.007581660033987692, 0.007814447771141918, 0.003098687670232345, -0.010659348437581673, -0.002071674037625627, -0.008810984385973311, 0.010902237841163915, -0.0005909256463424512, -0.0005312257628070595, 0.006586407649624124, -0.00959930231562801, 0.00032238649064948315, 0.011106726976408961, -0.001446477915106054, 0.01887609246527748, 0.009467320258503492, 0.01734866115350902, 0.010214305430092106, -0.0017689304968425642, 0.003536948888609736, -0.0016035572687599568, 0.012935719731356689, 0.01104547093297567, 0.0008865167989997034, 0.0026688620601141347, -0.0077274780551413475, 0.017727503233060087, 0.0005481810921660038, -0.01002681523412253, -0.001962328791043648, -0.009553949217841227, 0.00602308984821683, -0.007937017073366854, 0.00901813611357313, 0.003360319598574015, -0.0040292514865101145, -0.0007674240927042136, -0.00226520051438707, -0.01913806366550483, 0.01106569529449911, -0.00017358532082668813, -0.0033529058635056617, -0.013900759375275, 0.007796138845481339, 0.014325554052883254, -0.004971447243079259, 0.007716128580849924, -0.011833220746137189, -0.002382574443428373, -0.002703563915067355, 0.004809479821269459, 0.013738809311653303, 0.003816868480748394, 0.0034146129147117127, 0.008881071377074725, 0.015365910741795226, -0.005996239749402782, 0.007186541908393721, 0.00019931824059086177, 0.003599403079522876, -0.002951473700201023, -0.0025106659429979944, -0.0056160178843384, 0.01137553328734243, 0.004820636748349517, 0.003375385521519972, -0.006162573270333101, 0.00449179640680593, -0.005505870061566838, -0.002236539701852685, 0.0026413444804899208, 0.01328504537745606, 0.008018990775358488, 0.007080846005227274, 0.002312709516439687, -0.013390350762579935, -0.010062490730935663, -0.004435743001469356, 0.009045127070403593, -0.0014367156879729515, -0.014091773441380873, -0.004784353035648286, 0.0032078249945931103, -0.009271993381474714, 0.009120259055704766, -0.0016793737565725599, -0.00042475335055385547, 0.007559916812517288, 0.0012330400428738671, -0.005353887138670814, 0.008474202049025702, -0.011049778610624691, 0.012943372511205755, 0.006090216174109964, -0.010608708416440711, -0.0059836806009136104, 0.005495133020791747, 0.00279915011852196, 0.0077873422611988525, 0.005416565350525257, 0.011335420160225464, 0.01291869577045114, -0.013444344896423864, -0.0366483779242456, -0.02274136825188502, -0.02768335725058097, -0.016070059647337587, 0.015144694104893148, 0.00395604293683592, -0.009180009610871686, 0.005431577325246634, -0.005370235266881705, -0.005953024971386155, 0.010159593650102485, -0.011729250491879012, -0.012688527893980384, 0.0010695528886845577, 0.008723472796117843, -0.022931488411851653, -0.005984970743559794, 0.008789989682608872, -0.019483746900915623, -0.009049140377200076, -0.0021190593136403797, 0.002721818785717548, -5.389018941280772e-05, 0.0019047769305234315, 0.010988890323292309, 0.014415508673534128, 0.006062064878973814, -0.006730246346355899, -0.009011548919782921, -0.01995808967912485, -0.01596778476498988, -0.006109777139453178, -0.008001570285753198, 0.005926202460180015, -0.0020405189748171483, -0.020944675855848756, -0.016029696975467134, -0.01518789935097682, -0.017608566581999153, -0.011993575288942857, -0.015898832742941526, -0.0036824849577275207, 0.009092801098102008, -0.0054258289960377555, -0.002760174684604491, -0.006300043895520765, 0.004342308136468449, 0.0077240851718808085, -0.01385542157722389, 0.003989791063917391, 0.002106203936715659, 0.021699042277050908, 0.00972961730687347, 0.0233889818389587, 0.0023651329338483656, -0.018602931868674972, -0.010512267130796601, -0.012103353884135701, -0.010061197292689759, -0.0007929652942412929, 0.01279379017318903, 0.0035990407352264023, -0.016011954906893302, -0.017319344395220173, -0.015759782523895437, -0.0010109830685858974, -0.0002740183358201941, 0.007004931669704424, -0.00699791677614394, 0.010501195738654222, 0.008459923499234854, 0.00999253008494663, 0.007673557948228452, -0.00406673645199454, 0.0035617152519191735, -0.010649897636980349, -0.005178320847272013, -0.004863050422563678, -0.0058420687609714, 0.015070504358871029, 0.03668924661995696, 0.015292494744563555, 0.002085271108954461, -0.013378106409470996, -0.008689803056996728, -0.023525344561631467, -0.015324930337396172, 0.003096086726471816, 0.01678791782273716, 0.006124370434740632, -0.010424964002549154, -0.021003401023817956, -0.014133406400244351, -0.005284515634788971, 0.005571888911444646, -0.005292251584019398, -0.0033640376143973818, 0.004245045983413989, 0.0006328177684352294, -0.009646021711083672, 0.007639950043089918, 0.010817785595274704, -0.0014945555476848127, -0.0002034992992207113, 0.0019242378071149533, -0.021046618716439564, 0.0036770620935317956, 0.03485155487085936, 0.04302671582902474, 0.016820773012347866, -0.012334404763313276, -0.020963902784261808, -0.023569911666949734, -0.020882871023695092, -0.008777652153406926, 0.009240169127341076, 0.02887732176929517, 0.00043413368972085916, -0.024857680596137754, 0.0008791311818861797, -0.00742524947819127, -0.014563542306205863, -0.0035382034417055044, -0.009740658396550672, 0.0002001796346787268, 0.010484453015024143, 0.0034481254164597545, -0.00012029718639876867, 0.008966633419980845, -0.00311430242244873, -0.01035357445910285, -0.004144326678200302, -0.01047070099468586, 0.01585305541362354, 0.00940950465238435, 0.017956001066885538, 0.025147137570035675, -0.013387677589058788, -0.027647946131270595, -0.02547385925741128, -0.02505905646916933, -0.02719438148867544, -0.012983960869678141, 0.018735937526564363, 0.01603703697502768, 0.002628092243114011, 0.0023769633866962503, 0.012047716405322451, -0.0036461931819871977, 0.011311200836355312, 0.0026603690970289067, 0.006940398398161635, 0.018155285811209343, 0.003957642857072943, 0.012306044061253697, -0.00033414274785736176, 0.010592420523813848, 0.013421755977016494, 0.017040132504362388, -0.0030251749695577785, -0.002500545882304303, 0.004526524251770524, 0.006552470385067155, 0.010367584824117322, 0.012108220017559436, -0.005507683568724477, -0.022495936560898544, -0.03054913631438892, -0.02901102936981869, -0.006461662956066146, -0.002379099086019976, 0.015182301456960258, 0.025566273910682828, 0.01275474272540151, 0.010553019155777495, 0.010138771987282599, 0.026208171153037155, 0.018451253440005547, 0.0317739223284721, 0.019285228507760325, 0.01575552708012949, -0.013822914838212816, 0.011583261766119244, -0.01631354064730751, -0.007870386131350906, 0.001779439491810268, 0.00041170019593131656, -0.007284272113923531, 0.009939986300809332, 0.000928699431729213, -0.0026133059881655687, 0.005407600219811675, 0.008816088301368968, -0.0029337583209101525, -0.023163435486063248, -0.018516147474195357, -0.018219284457930283, -0.01310632710032234, 0.014408655003176774, 0.016255214229217448, 0.013224561786730907, 0.0027440254595051273, -0.008202755257850898, 0.0033585362372004035, 0.02822504975095495, 0.0349118707126451, 0.009598285945085328, 0.00396421249132735, -0.009288575159331791, 0.000773630473261653, -0.0011394071568501382, -0.005737591778986216, 0.007544199452406382, 0.007453107987142796, 0.002351394036189769, 0.007892339810593538, 0.016263359857884612, 0.005518839462436743, 0.01495835103929169, 0.019827052070047566, 0.004006155428206151, -0.014440051687783817, 0.010981686442395503, -0.004382438039032243, -0.0046606195541838156, -0.004651538768134561, 0.01503973849094942, -0.0066666590680099745, -0.017503585967227384, -0.01627197262669009, -0.039597213109264146, -0.0028823636732455272, 0.01163991793084445, 0.025105527906962362, 0.00292831228198645, -0.0009455707651108502, -0.001775124302761441, -0.0035443612325887454, -0.011216810064125924, 0.002910581949407677, 0.004021988366963935, -0.009068021966509668, 0.01580108598157429, -0.0005655630926914882, 0.023062563495041502, 0.004410232999163544, 0.008379761696313192, 0.010529204640006892, 0.010816778980723946, 0.027429999297249416, 0.011279632705466102, 0.0016014327051655573, -0.015391594904931194, -0.01280404987776402, -0.020220295275794904, -0.028902902004816322, -0.019867285004837497, -0.010263356890729184, -0.009192436380203723, 0.013634830668198428, 0.0032701880127877646, 0.02014476748056854, 0.013825357786809999, -0.0012677053738781778, -0.008996788324613514, 0.0026433637357543946, 0.0018256659348066286, -0.0010004576848443862, -0.00527069059855503, 0.00098900465632947, -0.002998685051204257, -0.0001693781334682876, 0.0069361573535797515, 0.01609672961476836, 0.006298239545754998, -0.00693301371879718, 0.009471323484359065, 0.01639704344240857, 0.022731607849815285, 0.009433502693777091, -0.0010124225014397769, -0.008728786011562118, -0.013778158569687933, -0.02407755274776816, -0.03762697974760914, -0.032898939355022354, -0.02339140970247033, -0.007719299477895385, 0.02001132095090181, 0.02465270047753481, 0.01838953624719681, -0.015965499331197643, 0.0009909216117066702, 0.004420616569683452, 0.010799122659585506, 0.007214095775255514, -0.0008420788751285704, 0.012252727488708032, 0.008464378235529459, -0.005435177846571663, 0.0075226485105058345, 0.012911918856392465, 0.0011008240801269687, -0.01593069537892052, -0.012186997199891341, 0.0070715463465566295, -0.004730698269545665, 0.003480430983085284, 0.0035554834009828003, 0.0069445198981393785, -0.009408279455528473, -0.03344579146460314, -0.024229068779141855, -0.01908644199027821, -0.008841033332357204, 0.01659813225104807, 0.005173582648321133, 0.009509030525199271, 0.009809560346710303, -0.01478249888628207, -0.009182010999851156, -0.011485432056763471, -0.011380929668874436, -0.007800374827409212, -0.01161814874619359, 0.001837886990128718, -0.008980636276519245, 0.0108805216558021, -0.008198998350919069, 0.008599185749162835, -0.005703004501438191, -0.003921010667385231, -0.007913597046204436, -0.0018783052881950289, 0.016764889359237832, -0.0015604249142011654, -0.002649384515543692, 0.005561165008044569, -0.025137582634716445, -0.031056479610763178, -0.023949623795995034, -0.0192191417501909, -0.0025632250831848, 0.01231036964842106, 0.01783646523810611, 0.0009691914250189177, 0.004455690293729793, -0.005256672326432937, -0.009657766121654237, -0.0003380464490662712, 0.004084329523548734, -0.001305221146884033, -0.006639431008883842, 0.015641580023896266, -0.0005813364642352605, -0.007994452891177378, -0.0032387006997369257, -0.0022266362372411917, -0.0073200326463581915, -0.010128876355948517, -0.006494373139474289, 0.0016996770167168303, 0.016181101867705196, 0.010392521167196479, -0.00034840074888703513, -0.0013756413920938974, -0.021314420185040883, -0.014852431088388834, -0.03722635750644297, -0.016485199468426078, -0.008137129969378248, 0.009188633115068786, 0.0048814830028527795, -0.006101791663524553, 0.006202464193350615, -0.009008528132567264, 0.0027796168812020752, -0.004294406537010055, 0.0016733173209903369, -0.009057374339836208, -0.004102828963459298, 0.00026202436862829393, 0.0034281042115496, -0.007742121005151725, -0.0023050676740714094, -0.0014651594593325557, -0.01276974303381141, -0.01581896238843932, -0.007545739667793573, -8.653730985045366e-05, 0.0016768904872548234, 0.010780089753220392, -5.878418902404186e-05, -0.010488126710066882, -0.016562426839105658, -0.009284737989985905, -0.032752776050301635, -0.015088578874559977, -0.006898525702182724, 0.001973052296652963, 0.012178533211901457, 0.02212942028060262, 0.007299967586434416, 0.010015032440118416, -0.0007238423043552757, -0.0026886216104714017, -0.01156563635676001, 0.014500524570164586, -0.008366886662016135, -0.0045499750910756335, -0.009711499196772097, -0.009997180875701365, -0.009803552811216011, -0.008363706397313916, -0.004208845555655908, -0.013379560290647066, -0.0003272911295715581, 0.00574109091632077, -0.02403767077309812, 0.0004021198615685892, -0.006022635856567419, 0.0004916230456276806, 0.0033059830422192842, -0.023518226998233537, -0.013568695318946267, -0.015168669959728362, -0.01402376078091027, -0.0032490471741998036, 0.0220564932987107, 0.015037509816008742, -0.002017279074498819, 0.009148375729906113, 0.005193150621403983, -0.004386124704080941, 0.010869119806986209, 0.0023551720045755626, -0.013075167221182835, 0.010751144623899563, -0.0012671766777886842, -0.006251052909561972, -0.00029189602487651967, -0.0005021968977381188, -0.004819373944194815, -0.006227386881614366, 0.010218608801172728, -0.016522040994015594, -0.028190954110335856, -0.028967262280163577, -0.017748920021625772, -0.017413200787710168, -0.0024723567126672674, -0.025670042183692697, -0.020797039378311462, -0.01166846848898278, -0.0247967980321259, 0.00487020997158117, 0.01296438806210999, 0.008548449452165374, 0.004692166756963847, 0.0013389025256407676, 0.004306024159564808, -0.00641968184043556, -0.002263828381224856, -0.013426881993221217, -0.008888087171250145, 0.006349792456262698, 0.014286126922470726, 0.002519836717189091, 0.007068797518852961, 0.0010628073156604715, 0.0018518252674947816, 0.003935305796427413, -0.01180291724903838, 0.004445371763298574, -0.0014993750731571213, -0.0009059805760158082, -0.018426539072231643, -0.0005232971841281494, -0.0010645270432324341, -0.01357329301530493, -0.021985169591544233, -0.02603914853848774, -0.01394122188736969, 0.009845675702012485, 0.02299762418594548, 0.009638781247720283, 0.004349014600543369, 0.004059800372086255, 0.0015376179564168823, 0.0006691320263051893, -0.0033925252397464076, -0.01433830594157497, -0.003795005504646467, 0.0033457615826589875, 0.0027111125722825385, -2.9276750120223218e-06, 0.009068493415974516, 0.0009395635858941198, 0.002948233887793234, 0.010549628516014585, -0.005232618238981875, -0.012833349612290185, -0.004335574458248981, -0.006603681617867093, -0.0011074582050812428, -0.02049166328413407, -0.008078714124096283, -0.025871035479001762, -0.010230890945180886, -0.002731135852037369, 0.013450743722254176, 0.013054590776883389, 0.011518266267111407, 0.003379665430476904, 0.0012280231195776429, 0.0018138453895580593, -0.010727071826447646, -0.00372738001659846, 0.007380950193398279, 0.0167106130393157, -0.0007109960812322551, -0.0021934895865305263, -0.0015296985503999321, 0.007407063910775527, -0.002038982024142845, 0.0062388195997924965, 0.005501726800231686, -0.006784497869719654, 0.0029113012439804654, -0.0038019193096284726, -0.0007351592258314655, -0.014752489455709382, 0.013306100886793288, -0.0013903347891811948, -0.017057433917417007, -0.0019615361252793293, 0.005132569568936096, -0.0005305538406735021, 0.002527968817723608, 0.008031978138612112, 0.0036788049045023002, -0.0050948639489972886, 0.017354335516863422, -0.008171519078534435, -0.002086734173256681, 0.012400717534228141, -0.0015731170364274949, 0.0021447426816890987, 0.00811605469360059, 0.007366391633200488, 0.00415215913041566, 0.0020862742276580863, 0.005054184200104356, -1.1011294590498424e-05, -0.0024936238711452978, 0.0001049140612899561, -0.012824261868918404, -0.009962618799688829, -0.0015101585783736473, -0.005450720939643377, -0.013725781052121066, 0.0039282110280947444, 0.003824871410395594, 0.004267098287420997, 0.0065674082276347395, 0.0035891844684924797, 0.0009024949712994345, -0.008191429767215899, -0.005951969763844777, 0.008297109747886187, -0.0012570173713148441, -0.002843067800057683, 0.007947939399961659, -0.017469553503091435, 0.0007866083276183912, 0.012306887167381162, -0.019188374821338554, -0.013960323440813384, 0.006626743015823215, 0.004879301096185441, 0.0012194863149249976, -0.007164519876277008, -0.0020865301378854705, 0.014118790984242418, 0.0019099316473898203, 0.006327011659263765, -0.0036667816146391326, -0.017116044000173084, 0.0030235812230085396, 0.003405339171648562, 0.019876144621120757, 0.0021084789000907463, -0.0010115389899105556, 0.007319037523834981, -0.013901432247146265, 0.004279043532456388, -0.001576127179441686, 0.014787292585891863, -0.0009406340849325221, -0.0005266135868513057, -0.001722739653709145, -0.010666495897648906, 0.006078123253817165, 0.0005194214292378577, -0.004156704214376674, 0.0013627532085562805, 0.012034553987357963, 0.005708026609252746, 0.002607588740264384, -0.0009762105727521523, -0.002672514031503804, 0.0004218404807473624, -0.0017263187347014916, 0.00029194747910083727, 0.02304472362066595, 0.006008971581233335, 0.005272598378370008, 0.00201736385293503, -0.001528953342584363, -0.011602515910036294, -0.01236986387140982, 0.024689248376708283, 0.008306904067725315, -0.0072904082511885595, -0.004904840582088851, 0.0027441675272444578, 0.010682063149815192, -0.006579729922006582, 0.001536420452959075, -0.011945042593413694, -0.00674615159614386, 0.009139400980160717], [0.008955643776479706, 0.00910331145404385, 0.006174399460042382, 0.0010726067687527496, 0.005880673392626628, 0.002387425682639459, -0.001389044738939958, 0.0003811592047719971, -0.004618221089831882, -0.004218002778338072, -0.0024656430834336467, 0.004849301276364585, 0.0015394915338721572, -0.009693220789160129, 0.005735854071537199, 0.006408422161478816, -0.0026803254231384946, 0.0013506686636863604, -0.012876769409116588, 0.008300872610706068, -0.00408430901422454, -0.0072559236441331375, -0.002713283678007567, 0.007029451732470106, -0.008329531540453277, 0.009110225672667683, 0.011304291579845992, 0.0030066277738515436, -0.012875294895921003, 0.0027929802893001013, 0.0069991811522215576, 0.003436471399761176, 0.006086080065075916, -0.013804851381370206, 0.007064560007143624, -0.00867883330478985, -0.0003240242305931513, -0.0016165710966618869, -0.0009424838897043361, -0.010479387246085131, -0.019334956397554434, -0.010269979111823332, -0.0009283517298889056, 0.005871010670949251, -0.011052622699028923, -0.00873598421347073, -0.009442626366143807, 0.002092582623052466, 0.008445510624761279, -0.006037813576114569, 0.014337748517451844, -0.006683710178732868, 0.004330924104538037, -0.0097039048423997, 0.006535956798404776, -0.007766036309220058, 0.011142305440318983, -0.004255606656594556, -0.0005384560437848321, 0.005787213488757998, -0.009770027344432072, -0.011001822593965305, -0.014623921961421402, -0.013607983166044444, -0.0022230658829949855, -0.01840929130524432, -0.036251186494171236, -0.0625931707214212, -0.021552476217827975, 0.03906419480946771, -0.05727925024719409, 0.021012198800585153, -0.05371626309266917, -0.07756303961868005, -0.02301195333303183, -0.0036327714935942947, -0.043506213286260156, -0.03473699828644772, -0.009545820385990632, -0.012237341808244179, -0.010999602364014996, 0.0015073968365325243, 0.0037143596376988486, -0.007187944797856234, -0.0016612489790385696, 0.002925978755510853, 0.0019758389493756867, -0.005695327313962656, -0.006058407381372169, 0.0248426209546168, 0.03532292971350954, 0.05264330513184365, 0.06912906189983085, 0.03403999801984767, 0.03810995884053723, -0.06786246781285978, 0.06288238930577277, 0.033061396930028304, 0.026636540790139353, 0.10815977224725355, 0.03551378049795356, 0.0012556481663217472, 0.04760923747854717, 0.09847010904033691, 0.025917323087397418, -0.1062661503892384, -0.057134514928517455, 0.010375313012975881, 0.03162012648015032, 0.011858583147162378, 0.016666029830301052, -0.004954083558902715, 0.0014369038538327595, -0.013408587659208741, -0.0018352179510265612, 0.005963679089331353, 0.009885370463986942, 0.04742510048931493, 0.06466149514262425, 0.10562707709844489, 0.15630278840278825, 0.11702846037220081, 0.07278436173238827, -0.07911495730803192, 0.09440934321273094, 0.0793606067918497, 0.01749374555455859, 0.07753172236305866, -0.04033871977685721, -0.11017757817514132, 0.06522106022116478, 0.03136944974187503, 0.0312996038968727, 0.021427927977539642, -0.013680981132703085, 0.062104340558385554, 0.11719473806118189, 0.043640115772365484, -0.01631945973869972, -0.0034775559305982124, -0.013430907562251012, -0.0014675860188275024, -0.016793059998173893, 0.035904144265421295, 0.04805045233010321, 0.07640593828560786, 0.03632062643022294, 0.05516890754058527, 0.01875499590568507, 0.04036582291830457, 0.02338857323029106, 0.14075382225953426, -0.08370761310202622, 0.04861818805728564, -0.012431647781735491, 0.053556098444688345, 0.0739382785211213, -0.13548129781363827, 0.1373423761162397, 0.0047491961567776774, -0.07887840516323034, -0.012402655286233685, 0.01785989127727145, 0.012440172700352872, 0.05405341475782734, -0.0005409396422415789, 0.004018840637161471, -0.005607274543610261, -0.006062789472596782, 0.0031854917701314516, -0.0028494528906669, 0.06407861356192014, 0.12249064128034479, 0.10336511748473706, 0.00255318522705503, -0.06874292594847095, 0.13287262190583485, 0.10353164812584097, -0.010416880844376608, 0.04017400218548699, -0.02991302685410904, 0.07911300179273366, 0.09114742111371281, 0.027029592143586693, 0.007705684389921288, -0.03137512662803452, 0.1240083089812047, 0.007501337529619094, 0.0029286888174074183, 0.1613374878986439, 0.15983493538042282, -0.00783297366782552, 0.11536212932492444, 0.18298912946219006, 0.06410831848202704, 0.01139303543496335, -0.010970754275704233, 0.004466145561588394, -0.014278810978362562, 0.08440908031435737, 0.0792115637127944, 0.06604401798722949, -0.02650443903343736, 0.03786645854034399, -0.10745686044168726, -0.0621575733486699, 0.019060793332896994, -0.04080142392581712, -0.03403636209053612, -0.07202705761738352, 0.04999292153352373, -0.0006054620511308462, -0.008233735652066093, 0.06615748867094526, -0.07901997650127134, 0.04774235371966286, 0.08863581785253445, 0.011687744073976328, 0.08052931352696878, 0.05369401908244521, 0.11999972152888722, 0.15801334770971415, 0.042710164686198406, 0.0025126593210132104, -0.0013769023725032096, -0.006374531480202398, -0.019185691855993135, 0.038837477489399155, 0.012189555852174233, -0.006916751150323256, -0.001727019420891624, -0.0010144813792140317, -0.016734853832135608, -0.03984025173893783, 0.010077903974787777, -0.12551552859055054, -0.03187018451770635, -0.04861933552104092, -0.10239691007904905, -0.0157369001879155, -0.07046639194035731, -0.053798667562586625, 0.06681475790511374, 0.019534616255824637, 0.05453143073886218, 0.07774068937721773, 0.15740630482911078, 0.04663558100590053, 0.10916241468318814, 0.08914888979024678, 0.016253276029622007, 0.01261538907984967, 0.000907261680289267, -0.013590181043340394, -0.022625761501460857, 0.006080564738336551, 0.021056115981559195, -0.03908171104047279, -0.004722341970262587, -0.050979018592818115, -0.12649584900049016, -0.11298301197365856, -0.030115350476963742, 0.09627256215254175, -0.03904308784728833, -0.04282634625324264, -0.02891120341699808, -0.043128996003064496, -0.056939723821937835, 0.05951147336396308, -0.10461396705376165, -0.07076029675329976, -0.12733908034183533, 0.05162992772089752, 0.056998342357421315, -0.05562788563266293, 0.026528993854847922, 0.02789303805195554, 0.004129859497343987, -0.009563933421364842, -0.0003112723689130296, -0.005012598131532175, -0.008156795509468743, 0.0009266561308015015, -0.030120464758759218, -0.011253588213348162, -0.03540536365338347, -0.09858193365182671, -0.057045566136445784, 0.0441372771022247, -0.05095463384078672, -0.09166606628254063, -0.06272774455409627, 0.25921377267841594, 0.208405886882547, 0.15003142167801475, 0.025623325600962716, -0.028189514113132433, -0.24435921199347907, -0.19213256327150546, -0.16374064670124883, -0.0025442692189741444, -0.030165563004006222, -0.07692721076991049, 0.008043983614835014, 0.03971571302909488, 0.024460349271180175, -0.007502955975057931, 0.00787478538448533, -0.004444510318366326, -0.0063402701799700565, 0.00015748695881341162, -0.06360489022784332, 0.01879967374144591, -0.03569268319946836, -0.0933116663726264, 0.005945471484522794, -0.12651973389973623, -0.007493381981647115, 0.11398810930037921, 0.0363724065039786, -0.033571784513263786, 0.213372873925837, 0.1622874745259249, -0.09358722243679596, 0.24908340956843514, 0.07921248671180996, -0.01029279762787222, -0.052716065991916, -0.09115594860496533, -0.14717227767709098, -0.11549699704996302, 0.001235269857966302, 0.048315452256634764, 0.028557197392260383, -0.01125291349462381, -0.01352458936096157, -0.0007601266411218009, -0.03690245661311747, 0.01854046829687975, -0.014323502567099033, -0.07051627708655243, -0.03649000703394917, 0.0007070746409244793, 0.030658937221202682, 0.04012317515939436, -0.09174498269575584, 0.0016049841911285859, 0.09851894906147532, 0.10271028338437181, 0.09032238331922622, 0.04803089670406477, 0.10577866714475741, -0.01024278218274232, 0.014154265249912512, 0.05149415128611062, -0.020142899762166006, -0.1617013955183298, -0.3006211748384065, -0.2728324057603379, -0.11924597563980496, -0.003385298959497175, 0.011678987896918265, 0.0003871907680563636, 0.013889961217657109, -0.016997336004563112, -0.02384783697434324, 0.026666795105846196, -0.035008194770647136, -0.1276799952379229, -0.21497565253241277, -0.017981496714212206, 0.08713854082596267, -0.0016776594380126944, -0.09397971993628902, 0.015085912171326168, 0.10555930705253475, 0.21318343764955794, 0.08482768910795428, -0.0167730059475985, 0.1606579994172613, 0.03348920717656395, -0.004981503565440747, -0.03007827417952324, -0.02618240011634283, -0.1434393114933941, -0.13692753149708048, -0.14218500227032435, -0.05827480274583068, -0.010379295715761789, -0.015555569465131747, -0.03812571091502645, 0.008403344598587877, 0.010537501299983794, 0.00838904507974776, 0.013316037742790306, -0.016647535312998174, -0.1498788991746838, -0.3979915741411241, -0.2902110293210839, -0.2823999748184875, -0.28151936939895783, -0.1883376272914955, 0.07144360606593787, 0.1688333030979337, 0.03465897234663928, 0.0786372294203784, -0.0027689329045318158, -0.0931336296012884, 0.005946909663291009, -0.07058860787938652, -0.05774610312270359, 0.10995155365491754, 0.014190025179374727, -0.08853502222755233, -0.035156630413013645, -0.08438814903305925, -0.028938760353393198, 0.0029568755514618942, 0.004326855814388046, 0.0005490400263660798, 0.00829618959640874, 0.02114671615813177, -0.06140616189658448, 0.060748352708144035, -0.06904350275294359, -0.2609756382074726, -0.41600002693564014, -0.49651271555397086, -0.6556263041372183, -0.7525490238336513, -0.5593275560139213, -0.17480798523446725, -0.028079901551474322, -0.10545706034426, 0.030869155159081105, -0.0054757004447362175, 0.04993006881145714, 0.023577318886241955, 0.06158059034311739, 0.11201193264632527, 0.0997172541269424, -0.06673479981468428, -0.00796283022920234, -0.029211529467693464, -0.019801794059395028, 0.002208601261133424, -0.011927800660737823, 0.009803820084783343, 0.001516458379803434, 0.03987554623175043, -0.0005380518226676136, 0.15621885482943793, 0.09936159340731068, -0.0015940671127759288, -0.16117220764286672, -0.07225362748660977, -0.3189391416000419, -0.5970415351848607, -0.7124945295530873, -0.6683392782899039, -0.37540050348032705, -0.27100448548325956, -0.06607833003907802, -0.0546982380163862, 0.08742021281043334, 0.06573923583464943, 0.19418161124286662, 0.10150372934383925, -0.01313802992507889, 0.05662946086636972, -0.007674307554016299, -0.031203663363884658, -0.053927238777631795, 0.0026313787528243716, 0.008719337156307093, 0.0060818479032083705, 0.01660444974556341, -0.014581601577397907, 0.015255803155131992, 0.19054994825558766, 0.24225108356096656, 0.19105190347876957, 0.12902645224422524, 0.2637417922432215, 0.0785713336621387, 0.004088002606140144, -0.21964301440577202, -0.27745248987727406, -0.22887102493402417, -0.13462950938579313, -0.2684164461509591, -0.05819388092461619, 0.027381855952487735, -0.06256418036916779, 0.08634780362219147, -0.012344636375949288, -0.06669872349238837, -0.07844017232093578, 0.028182286879852116, -0.028140439117723324, -0.08349595805328756, -0.00016734653161954439, 0.009712057713412468, 0.016486286660910086, -0.0034843443889805777, 0.01000235663570476, 0.08679119866406153, 0.12967285707540974, 0.1833778801198528, 0.22647588210363165, 0.04526646560426094, 0.25104079636511123, 0.3411166701942219, 0.21452121384960454, 0.12529381131665612, -0.00758141403287725, -0.052179093978426794, -0.10650549432999974, -0.04190158825538441, 0.04994986282281778, -0.03738605931004709, -0.08567327283443256, -0.016984861496459024, -0.04800772793075528, 0.11075972782828616, -0.017734920027182573, -0.0017160067732908055, -0.02354637222749305, -0.08006019373508937, -0.003786004315720579, 0.010873109462571567, -0.0045298602850174455, 0.0093250502752759, -0.002496216738371961, 0.08711968835653236, 0.06682831141283674, 0.15838563086272844, 0.09276857892609747, 0.1001839197122467, 0.14963413647302068, 0.033328740231486284, 0.17233814242610393, 0.2318003603446963, 0.282224723055647, 0.04225788929498579, -0.05712293524004966, -0.07300735481696202, -0.05625928898355867, -0.06956006474817163, 0.09048057370171972, 0.01614134011890705, -0.09032653741815204, 0.08589381544341056, 0.029646674862903732, 0.04292742857288695, -0.02839929854834316, -0.05594418198953331, -0.0019433474196877364, -0.005859684663750052, -0.0068535929922045, -0.004160619959672213, -0.006519393643306446, -0.022066729744759372, 0.01601304261250035, 0.0023301926863379323, 0.09741539799725003, -0.04235238042321183, 0.14605177737213265, -0.005956268530523962, 0.02394854776840009, -0.07944877698071963, -0.05139973785135098, -0.04902839017381163, 0.08525187871126928, -0.04945278138107092, -0.013502926258487521, 0.016695570103286424, -0.04388510558265418, -0.013858668215777793, -0.03346285593886588, -0.10361226546047306, 0.07249264446170924, 0.06763165299555973, -0.08201367165481548, -0.041615531205177324, -0.014938421345822466, -0.008643387541391361, 0.002844330965123652, -0.002366439221806477, -0.019049170301285622, -0.06044554681588385, -0.1128975044069035, -0.03864664784145602, -0.17833642626896737, 0.07152000213397737, 0.12674807738468896, -0.07378688149878194, -0.016030263112024195, 0.05141295397213938, -0.006172908615697531, -0.003843829133883177, -0.058996371999341525, 0.048029591803614165, -0.0746142442770957, -0.02259138195460343, -0.030774051828553348, -0.02851467409240371, 0.07146777844731679, -0.018465350883680346, -0.018573778463642214, -0.05361531817154564, -0.06465155738012028, -0.025057779587688404, -0.010333230597134853, -0.003379815904122025, -0.006588699250419138, 0.006052076242618881, -0.017894170377162462, -0.06271047083483332, -0.16570439951465785, -0.13212181574254703, -0.17651437606556003, -0.02700727964984645, -0.0626133808417173, -0.006996037877491378, 0.005874395279888125, -0.052105081172366514, -0.03107991932726947, 0.033456323739774085, 0.01314819872077237, 0.005565721221188613, 0.013779273306370217, -0.10573231876415212, -0.12389451169727032, -0.0718721124116538, -0.05888414871765383, -0.08397810450366618, -0.04994236892827038, -0.03157227199558511, -0.07097382957816267, -0.02784600812294352, -0.0008331057790418959, 0.0026361504159531624, 0.015189853868013208, 0.0024779272052438406, 0.010906262723931633, 0.08079351232739057, 0.04835281597177227, 0.03843663184608983, -0.019042116590764716, -0.01448350772927903, -0.06430395318459971, -0.05710934346495219, -0.09002544352424982, -0.02450208866255929, -0.02718067398732889, -0.07016983856273984, -0.03245761966260684, 0.07298641128773523, -0.11225533437757898, -0.026342693668346382, 0.12803556895122437, -0.018577145255289352, -0.1043239971860297, -0.07867438706344623, -0.1097352408552338, -0.01940355269358731, 0.0019793555779667794, 0.014958300355538872, -0.0021595665123493443, 0.014422698771271234, -2.089620291163002e-05, 0.007926963645934199, 0.013512290103804173, 0.040304002282167, 0.10375033553824213, 0.12710506209470743, 0.11137101327860782, 0.04309373074558008, 0.05133146660223388, -0.05634228625105947, -0.005882258977568135, 0.07931382889746708, -0.010478805097548019, -0.09364754917847908, -0.05052859025903313, 0.03215861747748488, -0.14172372768302952, -0.019023359641201484, -0.08530253175708208, -0.08048555532276729, -0.06593682158911722, -0.1559145114680734, -0.06082243105112624, 0.0021898339730358147, -0.021079187942036892, -0.0004189543402790411, 0.006798694043452802, 0.010146498895209365, 0.004527395863278825, -0.0042479262456621, 0.003057896371175483, 0.004425188751418141, 0.027959970644850812, 0.02477151835220661, 0.03383047356607686, 0.01608487463423667, 0.02192397528268549, 0.0076353609096945245, 0.044288880266933714, 0.05346024802395777, 0.07626826373818044, 0.05620070896394322, 0.0754739299065266, -0.025092065198601972, -0.04628265491487964, -0.05009326344255269, -0.0947507047679308, -0.027312028513075258, -0.030165005484809174, -0.03138085264935479, -0.05251110420542885, 0.0016688285459606931, 0.009661566095977524, -0.002504010295546548, -0.004828182206556807, -0.005900181481870263, 0.0005357203465841993, -0.0017910340251866834, -0.010075320808821283, 0.0023624482368900736, 0.0036958923181125976, 0.014696553582172842, 0.002724694281011876, 0.0007643780376619573, 0.012513209140939395, 0.012051353524320471, 0.0475878806469108, 0.0588092133457549, 0.02890271009931645, 0.006960606063424085, -0.024477460479159396, -0.03644947646295691, -0.04097955999284505, -0.025389129942166154, -0.04933834135732008, -0.03167189306036465, 0.014306907286735374, 0.0009360608251515279, -0.004777219089659419, -0.0013465263226363669, 0.010050797527656844, -0.008474172923241097, -0.008543157511400409, -0.007547939167678676, -0.00525975674931014, -0.0023606853788723536, 0.003716932324361355, -0.0029996571800291107, 0.0019504668503952558, -0.003153645148984952, 0.013431090143230531, -0.006932501868417845, 0.0067900678551085294, 0.0005013474928540225, -0.0036502127975880103, -0.012486904727379308, -0.007197492952657278, 0.003233178095062218, -0.01355015939688406, -0.002820034840036079, -0.011546938252847926, -0.025538644181933808, -0.00675093930750039, 0.0001900550230968967, -0.014842748185681737, -0.0010666611756258125, -0.012019434292076124, -0.0036557662832624955, 0.010123882803676805, -0.0014987390528826703, 0.012311176114769153, 0.004301650776173379], [0.007646292898741737, -0.006213392363470732, 0.0014753919704292228, 0.008200021313613613, -0.008219891234732617, -0.009647488593682594, 0.006765236323008688, -0.021438004983590386, -0.016487586224158468, -0.0004596324830977925, 0.003980696115673786, 0.011774499465015383, 0.0002913389533888495, -0.006713994969283754, 0.008982396683933701, -0.0024519164149749014, 0.00259302305723867, 0.005332549287036411, 0.004349425943159163, -0.007521928655141212, -0.005792555563052442, -0.0015182591375986823, 0.010542465965595469, 0.005229356869660951, 0.010930526704597193, 0.009692710750589152, -0.007003090493805307, -0.002435838650998805, 0.009056619834800363, -0.008437441574107935, -0.0036852631157162303, -0.0023438878529466263, -0.0010228080145295159, -0.0024833320814139476, 0.004497703835498904, 0.01385608673879526, 0.013550451870616749, 0.003988898352025964, -0.0012440728834343894, -0.0023148545311125284, 0.00223804603752497, -0.01654753587574519, -0.010877619698337036, -0.028632853884449277, 0.0058812859301726915, -0.015629937416607828, -0.01606224672758306, -0.01055007949661967, 0.0025576420647990448, 0.0007752541511748803, 0.0034484398378378635, 0.02099291282204559, 0.0045674975939919505, 0.008249526269379151, -0.007298055670516398, 0.020144901489188703, 0.003639737297058356, -0.0024267477871877437, 0.01715473429913999, -0.0032420787589917286, -0.002920273672002056, -0.008234027991005833, 0.013646483601291696, 0.03079862559676771, 0.020746149234536968, 0.029813957096695078, 0.053255157317269486, 0.051197046686358945, 0.010094651693591077, -0.042941263729887325, -0.019150190219806407, -0.08229691956300975, -0.06585836524759633, -0.04460297477245935, -0.05500410048202847, -0.038585286760180235, -0.020326720817040844, -0.03775444628375091, -0.01053178988793017, -0.011111555154202936, 0.0003829732939031316, 0.0005394476845780537, 0.012605393634950859, -0.001066622515725188, -0.0031140977431099374, -0.004753585086990735, 0.003676717937304983, -0.000959013571615329, -0.013642230163879901, 0.005026901159268737, 0.02467657213882882, 0.013967876890221316, 0.004491272848198011, 0.025428310296055866, 0.002721983252343651, 0.03163974701053677, -0.07879673190312768, -0.08792479344096894, -0.05081810166296648, -0.08737698189042617, -0.05132545108230932, -0.11170606616764403, -0.09665579690728279, 0.04634487296471814, -0.07681993362329835, -0.029187965821184415, -0.0521795179798681, -0.06978180568259475, -0.02136884747803482, 0.0025541720641414673, 0.00425508831453823, 0.003457012213574763, -0.003810395108128861, -0.008435165511710857, -0.01350879394515453, 0.006742839514853401, 0.005522731370199545, -0.00054821308972835, 0.04163699509202077, 0.008227644143375774, -0.021004093643443585, 0.001919644303151479, 0.16927539793757185, 0.12246614143675505, 0.1644959055683861, -0.010917472054612272, -0.025351841213238278, -0.040720283005510345, -0.08056197069757856, -0.07304368021460042, -0.04937891982741748, -0.031572864085545334, -0.07683174166347985, -0.08846265697246442, -0.0649636236197187, -0.1066951356663681, -0.07671683167313369, -0.010797207992650458, -0.017432612447033483, 0.011573672982199613, -0.0035971012263930997, -0.0014761676762489375, 0.00018246522337473644, -0.0010943951031156757, 0.001783127542935037, -0.030399780812489136, 0.0019490179849390487, -0.0799732965665157, -0.03716325719166636, 0.08217870809314481, 0.0515555471019401, 0.03092452506073771, 0.10962487136475463, -0.0958078104421072, 0.05584927583704995, 0.03604786437678551, -0.002883366757888876, 0.03434693385990602, 0.0373957832032216, -0.14395773942442192, 0.11413425270424646, 0.055704371855018, -0.012154855385396986, -0.06568764199988385, -0.12837999041659937, -0.041711046370772144, -0.0017492108539894032, 0.003186854492589145, -0.00028509921358987124, 0.00842499146695989, 0.008316535879594186, -0.01392677033821802, 0.01264019934596315, -0.026961236524401938, -0.055953604266109784, -0.12987772830483998, -0.09720346241882705, -0.08174311752698729, -0.2313091653071746, -0.0033600940276411503, 0.06438859286702829, -0.00022522205519466822, -0.058418876291612264, -0.02134273265098956, 0.18886134177731362, -0.09509936276314811, 0.04147267151225097, -0.03944313531229265, -0.1355226437022981, 0.047799007426671966, -0.06939089754842565, -0.09431760776759293, -0.14706443730122334, -0.019574327695134563, 0.01421122437058158, -0.008957167766441053, 0.003252019147579778, -0.004766750767760588, -0.006506984346067222, -0.035965728575343206, -0.0224244150839589, -0.08679107062678629, -0.07850739747987084, -0.13127345094939485, -0.043023472096645594, 0.011442310019773826, -0.1768935262685524, 5.0056842650552115e-05, -0.02392470673911411, -0.08484567299217215, -0.05749626883953995, -0.09303598186741976, -0.07852203718190347, -0.10001767962915371, -0.13312245504904943, 0.022288668477539478, -0.071679792666145, -0.03972662794090147, 0.027691788520580296, -0.14398191063351612, -0.05036285531769949, 0.006208330301254962, -0.05643593225621285, 0.008195467962489093, -0.02103527880348404, 0.004005035720544469, 0.0009655525183503333, -0.03724104177035452, -0.11674905587391579, -0.15130924991941605, -0.09209970898939214, -0.13766214359050433, -0.2251778558090417, 0.032953918483680664, -0.09905549730470325, -0.15285877177141435, -0.06630781388171457, -0.03629990520404526, -0.097458124051909, -0.045550394433925494, -0.1128462394107861, -0.07205039862773928, -0.010230086192178854, -0.008534518558086698, -0.008887542298518824, -0.06376482339622364, -0.06638973910928701, -0.04542567951020114, -0.091329661264529, -0.07631162989794459, -0.037715201936288904, 0.014217969941771767, -0.010121930561252537, -0.012601375067708715, -0.011839741238216076, -0.001939625277523217, -0.056598309230033915, -0.06817435655648087, -0.10439256107904243, -0.14809069440535905, -0.219674009711759, -0.07417260563813682, -0.05002511653606934, -0.08978869573816234, -0.09306572794340665, -0.09427545627350722, -0.1414728750886108, 0.029612011105265772, -0.10620580291174872, -0.13626417210003106, -0.0527094821883084, -0.0508052518126405, -0.023864664001110775, 0.09670938206666106, 0.05348398367355222, -0.09415405660063736, -0.16900501315155975, -0.13748230248010623, -0.0214894194235638, -0.010918518306832537, -0.001776099837148958, 0.002196378128224351, -0.0037045108659382094, -0.02779216621530032, -0.07665043641327525, 0.029993328772677946, 0.041262636895346635, -0.14164777523709748, -0.1196276721331067, -0.07217269656346718, -0.09772971445040152, -0.042814209145883235, -0.022447039963300195, -0.10076015876929306, -0.12352750323477843, -0.01233992321225381, -0.021971096088361376, -0.007978860138768546, 0.04828482771843455, -0.11958390406140748, -0.05331578669502817, -0.055744136439190704, 0.023085753946194876, -0.12437540998040768, -0.1103973007851475, -0.08043781732111804, 0.0030523230998469944, -0.00863689157893339, -0.0015744479017562921, -8.683782061373238e-05, -0.006883976543993189, -0.0408360656713639, -0.05154797620406753, -0.06749130191582019, -0.02695305754146144, -0.14752668956363874, -0.15511295041692238, -0.001166066306122283, -0.06318145615987064, -0.11421655236184722, -0.1782198523385868, -0.1864238854847843, -0.19801048594795267, -0.32746353036755854, 0.04159938346604164, -0.02912466071632427, 0.008055334586834354, 0.12085377253780852, -0.014475316611298762, -0.0867510647038617, -0.05048497537829514, -0.14392225019277283, -0.11474817051747897, -0.05218163752444704, -0.05912801857628704, -0.006469022776712541, 0.004046329351666858, -0.00030855783128003476, 0.002066195585491194, -0.06678532151467655, -0.17667242570874506, -0.10653855418197282, -0.2079265029539814, -0.16242289262477252, 0.0419702216432162, -0.027266971357813915, -0.02431125432061175, -0.034963282300057096, -0.11525662199470835, -0.15408077083328794, -0.0619672388491373, -0.1429457812424369, -0.11492802134328027, -0.15528267421825842, -0.12412558465589658, 0.09092330883408316, -0.010474943617925494, -0.05182455290092132, -0.12997144290287524, -0.21535888281036866, -0.10325553528500889, 0.04639588558633731, -0.017798184677655128, -0.002593604054768533, -0.006804537804369759, -0.005085069545292067, -0.011069460004660405, -0.06967961895541658, -0.11201343774031008, -0.1154375781887083, -0.04140395495241044, -0.11237649737476679, -0.05618713904675277, -0.08111283256677534, -0.0005987577764941485, 0.007235891344821728, 0.0336425119333012, 0.1104366181505057, -0.20486206433454687, -0.01565371337716523, -0.09442844686711388, 0.03422714204422219, -0.07869540570360468, -0.016108382932805903, -0.05651407073577664, 0.03254958444657689, -0.06529465935087986, -0.07221695380718371, 0.0350341463214245, 0.09662838109401406, 0.03653608977883715, 0.040570218141663804, 0.00821888621842822, -0.007344320852873912, -0.004253472177151217, 0.0014714240286696897, -0.03811489757122324, -0.14606593387084846, -0.0034903259447533553, 0.07376031662711362, -0.02170622798896212, 0.06710744290900306, -0.06659820620715713, 0.028369660835773414, 0.007796478970874679, -0.01278817447740466, -0.021758102293464133, 0.13559351713759352, 0.1168580936392126, 0.10336582650917556, 0.09989339418821229, -0.02410048097497718, -0.01986809116842817, 0.017734334808344934, 0.010496170158308532, -0.022930684571232363, 0.09111681527762085, 0.13124483100648024, 0.06688660878230708, 0.01691143553302783, 0.021431962321374506, -0.0324501215191387, -0.0027203829580428494, 0.059244974083483705, 0.006106155736322002, -0.019003741372928637, 0.026771408250429916, 0.008937692353863934, -0.009149507772179672, 0.13360485492171367, 0.03251665737143198, 0.010162214599525963, -0.05352601516685116, 0.14655464140066904, 0.04353748950288052, 0.2007062757393418, 0.04053367266060912, 0.11399258116337735, 0.007331773419114595, 0.06777422298052277, 0.10046745760515721, -0.006475181510091473, -0.01866660047634646, -0.07401191255084834, 0.1407061911034728, 0.18518062098216218, 0.10144454152947961, 0.0026490311887309285, -0.01423348671068581, -0.019474541418600357, -0.029196707157958253, 0.0635538180411329, 0.05579457190034869, 0.02611264392966124, -0.017917029460895184, 0.21943125856669027, -0.017633390306236927, 0.06929115454079868, 0.05447189035667964, 0.14468595252582658, -0.033207225219646745, 0.077854546764233, 0.0739113125973581, 0.15018904731002644, 0.13598684888692897, 0.328674143726608, 0.0869993617382177, 0.09958943732804833, 0.17629415507836435, 0.21738905142632, 0.12106820974285391, 0.08457557662655009, 0.2204680623245277, 0.2820987508295784, 0.12223240742858305, 0.010786574165011102, 0.0018173719528780594, -0.0027058307169638435, -0.03147993019025935, 0.027136256348790164, 0.1686182195196329, 0.04536439883135814, 0.2050812203433435, 0.09012291406369037, 0.12231629793877007, 0.03675264411915707, 0.041738923527317874, 0.13979020524662472, -0.011981684085016778, 0.05789895741357812, 0.1902325690287972, 0.06902685713410198, 0.12684685029857673, 0.05986663152931971, 0.1695114327769431, 0.007298256892921556, 0.08693072067339551, 0.15934597361788294, 0.10220397331002233, 0.03205373419415862, 0.09280709279367903, 0.19075463584734617, 0.023842941875949406, 0.006305308055393643, 0.0026582756347107448, 0.010232067417080291, -0.03403302553925864, 0.017712888116888325, 0.2152002429696905, 0.055794315280488935, 0.08297274894742482, 0.0759784604380231, 0.16555126410039112, 0.006952404727431745, 0.06594104911695915, -0.0677682279495873, 0.05794065191946656, 0.028653855602335656, 0.06351216929968895, 0.001052608532215055, 0.24788425470921457, 0.1378611428704364, 0.13728440374373227, 0.25926001962192924, 0.07028553752856076, 0.23356687351657382, 0.1904180973604162, 0.096104911282357, 0.18890539407474993, 0.09992161525986445, 0.01597572597242063, 0.022785250374608778, -0.009164107544217783, 0.0023611450271309644, -0.014548000165116976, -0.008971128673731356, 0.038562785397593835, 0.1070905735472576, -0.02250260576869715, 0.06540201126294198, 0.06400175545390004, -0.03599977093196204, 0.04138063397048957, -0.012982172628953003, 0.04546046532683875, 0.020963439477392702, 0.11347935143286392, 0.22690716044967038, 0.12540631522022289, 0.07854986493250456, 0.16255176864563395, 0.25686026264405687, 0.14443901542478788, 0.043502235871971114, 0.1008781900398184, 0.1888557591500876, 0.09020730867834258, 0.03350114587763512, 0.016822200130646937, -0.002006279835199169, 0.014594661222008835, -0.017112877876628328, -0.016236728243415415, 0.035203950863512516, -0.00042672942104477173, 0.13219612047713142, -0.02863858394897477, 0.025728494355534825, 0.0011197749740067583, -0.10854090364579513, 0.0008728869410881863, -0.006592011121379795, -0.21530214817411872, -0.10721372216527436, -0.056981009326293276, -0.08745887662889318, 0.09104047457678205, 0.13788929159869426, 0.0829282381785697, 0.12958863885126437, -0.020614063296760927, 0.002047040979844993, 0.060806996717074444, 0.19938029492866877, 0.14206930173393598, 0.013646732769650867, 0.015033098140256742, -0.004364213944667058, 0.00790154507868291, -0.004163135506053207, 0.012808248611181575, -0.02100063754630492, -0.005437089541874845, 0.13742538337950827, 0.019166344295863655, -0.043706640862026885, 0.039016009468647, -0.09742027588616275, 0.08899345301323852, -0.14530400646844754, -0.07690217569988445, 0.024814202871247748, -0.06920111856913269, -0.172221645036886, -0.07947091240709277, -0.05493460458971335, -0.11330218206798953, 0.003248049986719242, -0.031006064808115484, 0.0905670072393425, 0.1070234626640445, 0.21894829126109747, 0.09697580083484647, -0.00476066567729223, 0.0011847435728576578, -0.0026084579486160345, -0.012480703962100543, 0.012348878653599453, 0.02028043621006729, 0.0012141173476743184, 0.03551472506958385, 0.07545681961990322, -0.09928351429790315, -0.050957210130281635, -0.048102761948809844, 0.007939858854438939, 0.018841013916887812, -0.04790152175704535, -0.10810754317850725, -0.040159560712278865, 0.0008793506224597362, -0.15141733669780963, -0.15971446462919067, -0.050391713406144276, -0.07808761592559642, -0.058844085905021916, 0.07419719500698796, 0.03056227631447086, 0.06765565518834887, 0.07198248501374463, 0.01679285446442919, -0.04143444517336868, -0.0032753032262997066, 0.003641276909640973, -0.017442841036210723, 0.0058418038621993115, -0.0003911476724167339, -0.00651668890452408, -0.011534306116402066, -0.039252898081210755, -0.10711832759443798, -0.05468319285839201, -0.1562575632062945, -0.08057137324252703, 0.10424799231317224, 0.1019696986861548, -0.05578774358614736, -0.20204240951031013, -0.14491091934152722, -0.33624579700645885, -0.2774270597228571, -0.17406212178422836, -0.08088243855043079, -0.25970503374338244, -0.23060904308426344, 0.006191297546468951, 0.023212434564267366, -0.04877314317730416, -0.010665028260206516, -0.01294426130820549, 0.0038854112800218517, 0.004372166064403461, -0.008398607374458217, 0.00915692082984261, 0.003720287245217471, -0.01538917182528531, -0.01683364230022568, -0.03289199134285172, -0.15219421170966557, -0.17808147892694073, -0.14704198848892525, -0.2193881814244253, -0.2284983600314245, -0.07122689704454732, -0.2365120213168072, -0.18621718710284016, -0.12245282407566652, -0.22510259612442443, -0.24663457808977107, -0.18505511445021292, -0.12180933928780135, -0.1299847329300072, -0.08654136742647947, -0.0033179463331197917, -0.03662938051043359, -0.04232822446739559, 0.004268880161911194, 0.01655053869040963, 0.017823483575625222, -0.0026937503947825733, -0.0007572657895071667, -0.008775643890499533, -0.005165494351153772, -0.0018829156856401356, 0.003983593836002497, -0.007359180135581228, -0.017541867588969372, -0.03233576933940894, -0.09892464545312099, -0.21307934586286978, -0.16498197205607742, -0.12945881724566877, -0.12554827928391846, -0.11992965830578096, -0.10134717992789939, -0.10089495924159984, -0.08406645471597889, -0.061679727760950334, -0.05506545886333332, -0.10761275835268881, -0.08205006396173647, -0.019950895806716454, -0.02043433282057754, -0.034776976550023625, 0.011970183780168618, 0.01131810200485538, 0.0033014901039768803, 0.0040345727929291956, 0.011159808213845088, -0.006739402255833216, -0.005462512044947612, 0.011029846854051926, -0.002598551100243014, -0.011039830908911643, -0.00998763666137566, -0.011428387433550449, -0.01563712341171885, -0.05829164778478998, -0.02096842018440589, -0.0565976606400049, -0.021495021683897567, -0.030451347157816944, -0.03993744914716461, -0.04103111543185481, -0.02694911154178226, -0.027490129304601558, -0.03506278364861145, -0.022245411321338945, -0.006556560503242555, -0.00715787649024131, 0.007261581985951618, -0.004623327300966044, 0.0027451778009500486, -0.008172047736733107, 0.004331595117387874, 0.007872456466876855, 0.01332821903828282, -0.003087446885919113, 0.00857178717059615, -0.006357987385599627, 0.002388400682733898, 0.013374563782697262, 0.00016010945803291598, -0.0113885636431774, 0.0157569639145299, -0.008713832942813788, -0.0034804894711878338, -0.0011309157943404117, -0.00884894042889791, -0.009338940225998791, -0.0018524749246450897, 0.0023340514258684423, 0.007974915577832361, 3.662386606312856e-05, -0.0018186130040054626, -0.000965373643614164, -0.0010379642335214584, 0.005840185471031667, -0.005736856074257067, 0.011865276064885003, -0.0033457511047903414, -0.007141397761692839, 0.0013854452683235278, 0.0050326186984026525], [0.013364626620517493, -0.0015659427307676693, 0.015210068637610827, -0.007540227921723281, 0.004388262860767601, -0.010248566823247904, -0.006456518086250867, -0.005199754781316435, -0.007346690748951966, -0.004366698082916728, -0.009089919027919134, 0.017640800752919447, -0.01253429797401137, 0.000857822928298661, 0.010231327330393888, 0.0001035116747214759, 0.0012671773805192827, -0.007623848569703121, 0.006301200141897877, 0.005475661867112035, 0.008794182667452166, -0.005895033013115967, -0.003050753397246558, -0.00925343267448567, 0.011135593638925226, -0.0009625188660172929, -0.0026194131216151686, 0.008378681806213132, -0.0010323166743320927, 0.008474456398137889, 0.004185545308731141, -0.0015988816502318787, -0.001063802635028639, 0.015915204564713948, 0.009562849698583249, 0.009691270896014069, 0.0054656435022753256, 0.012625772234266421, -0.016572263727999526, -0.00750866483491404, 0.009837453801972429, -0.0031440883457807297, -0.007558437593016112, -0.0009418112778642484, 0.006050366962751271, -0.019537246589110973, -0.01785275164153762, 0.002711062600765756, -0.013571231094671503, -0.0048786204857975595, -0.012080803957568944, 0.019437935667343288, -0.007631464089469657, 0.0015457398413551047, -0.00610165306477452, -0.012588162378239256, 0.00024283429060663323, -0.01906198526010042, -0.01804995054920997, 0.000411062037925427, 0.008474675053519346, -0.004319554233994102, 0.0014555810751052543, 0.00499499650430584, 0.013340809307958935, 0.0246840136822237, 0.006521570024954671, 0.015750583119832663, 0.052909577089405906, 0.052351035325483276, 0.09061813152276, 0.0017357185901461184, -0.04995074984044093, -0.001774701647227051, -0.003213139136827938, -0.017424006346155246, -0.02100962503304679, -0.016674265654520043, -0.002812923054484089, 0.003293371523145705, -0.020921500039987998, -0.005542523602928063, -0.012837319763601472, -0.0022908212275781657, 0.006528630525129861, 0.0025220415167684627, 0.008848474661603276, -0.011880052951970596, -0.002194194834517512, -0.017166954924011366, -0.040428484930593464, -0.008600369078254561, -0.041448534454647634, 0.014796467494273264, -0.017159263177041105, -0.0181876838691985, -0.08961070823557665, -0.09600263088082221, -0.012524060992605052, -0.011200234020367746, 0.04588631982223771, -0.027579137091757966, -0.060170273082037914, -0.0700147089383523, -0.13785810699644424, -0.07203678782364158, 0.0063528713575346195, 0.007273980013021007, -0.0041181182707556805, -0.004840413511115922, -0.007680278351594714, -0.0009756000547572009, 0.00560280709869215, -0.007550490021023746, -0.004149257375244999, 0.004388162528614558, -0.002272950202130573, -0.016805060344608446, 0.00975102468895117, 0.02665065535505099, -0.0728263173170118, 0.011531730506889666, 0.028599004916347058, 0.004348701101025624, 0.059324464090623565, 0.07734404680189705, 0.04600458918583643, 0.029804528020953795, -0.029077516332877175, 0.0074594828682686765, 0.00011577150231131593, 0.04190912192667773, 0.06334230480869989, -0.0694153581765986, -0.024708065940989395, 0.017218459262589025, -0.010047888530744035, -0.0022469519674458913, -0.0136985270859829, 0.0037111439036744357, 0.004108255553589231, 0.0020109313248076544, 0.008837189733083443, -0.02903295586019393, -0.03576680764561074, 0.0041606148107982705, -0.03939922497298744, 0.03394438719155333, 0.03823642131933753, -0.009595707529677769, 0.05139146885383945, -0.0171194333582847, 0.059663131872186956, -0.10129737627465578, 0.012379011667808934, -0.0679508712880827, 0.04853436734928503, 0.0591922216827582, 0.0414864513512033, -0.05959586648431434, -0.030573106194482665, 0.01609735512722591, -0.07184803813452685, 0.031187422102349385, -0.014121600752592462, -0.012301464620878982, -0.012669366952413861, -0.0031238170550365266, 0.004075913818711338, -0.016849575579901188, -0.007257895284653344, -0.036470235927603616, -0.027809928863014855, -0.02264629510467727, -0.06749107839227914, 0.03138680631399752, 0.02967983679364879, 0.07473049998022166, 0.04004191418693576, 0.049106185178282406, 0.03065845982803125, -0.030448196845958644, 0.20425117208157886, -0.055243868455122906, -0.04328600828612881, 0.0725463617899138, -0.03464630824094921, -0.024114110183902766, -0.030285859987590615, 0.05603805371458514, -0.08538150552292802, -0.12467802999068812, -0.0702117350861973, -0.04589774453239816, -0.014384506033428082, 0.00019028350070004351, -0.006711767706691484, 0.0023760669172878, -0.019847643219789664, -0.03289328984281307, 0.086096100189599, -0.053868809821812844, -0.14441544489584004, 0.007382917827095453, 0.06566598468959511, 0.034234214293519236, -0.062355718080782274, 0.047480599575759654, -0.020240497509692385, 0.2006814373230094, 0.012105808866297895, -0.01170923321860551, 0.09677598241836018, -0.11877403633876439, 0.049022278495846686, -0.013475461356761672, -0.03772688935658283, 0.042642219188161884, 0.07545938748688094, -0.14261522340205074, -0.10061301392520026, -0.04675910348159685, -0.005403579720408723, -0.001780491595965666, 0.0025072491829857438, -0.0009218694716649512, -0.01801549871416651, -0.022769051111206515, 0.10982985692751414, -0.07390852760693913, -0.11164897948828528, -0.05949703887429304, 0.026434698806257054, -0.058638794984606044, 0.10066740649832699, 0.0795320059490977, -0.042068646972102816, -0.13593265692464512, 0.09170036897509727, 0.11727063624236793, 0.042997001623071684, 0.11540490484687915, -0.09645151520583642, 0.037125259310317064, 0.017155876737459448, 0.06592780264162812, 0.02668019506317429, 0.06069925470224116, -0.12447601639677874, -0.03572902455748635, -0.007757358664737925, 0.009353948737872268, -0.0010445975943018297, 0.00680816284919721, 0.005510279178023286, -0.06590013474267412, 0.04859145525629102, 0.1169839828363, -0.13565731763732058, 0.008429441593614015, -0.08058956727056367, 0.020068768566547174, -0.019130021509869907, 0.010268024233148489, 0.05335823006722715, -0.07785726779728455, 0.012795893594483682, -0.050672149902807, -0.039986641902615826, 0.006597197283372289, 0.1534042894856614, 0.051553307020342456, -0.0378246872892346, 0.04210504186170532, 0.001952760269452451, 0.08620171997362083, -0.09285904615962673, -0.026810533593102828, -0.012956651436581956, -0.0023649600119570982, -0.0015639459745850491, 0.003072138590873412, 0.0013816288954602907, -0.07149268556765377, 0.04350345645130297, 0.06419693096455902, -0.011960702815517834, 0.060440570557119336, 0.015315535123785569, 0.008007853458590406, 0.024508198172328653, -0.04452479312865647, 0.09227413681400545, 0.02637336795742983, -0.0673007355061807, 0.014455592430835277, 0.03010732267364442, 0.1525676942018361, 0.03408972525837362, -0.034110896295205174, 0.05189924256144121, 0.09112989412555045, -0.050561946194469846, 0.024565166608877625, -0.003235879512327014, -0.011763921415634584, -0.0010853233870823365, -0.004483693614945955, 0.01208589582008933, 0.004166630691521541, 0.00032164705019556124, -0.037612987436069965, 0.08730111235134258, 0.16419408777330166, 0.10635589320376897, 0.0077143364476332625, -0.010843038298863388, 0.09403100374744941, -0.04196097739155445, 0.07964014806882366, -0.0071040078457457415, -0.17740785235737663, -0.1288695684341458, -0.0720179694668321, -0.09156296263691346, -0.11543060836937521, -0.07085044712481599, -0.07677193880463584, -0.059768979287946604, 0.09986922205197903, -0.07488703025994628, -0.11613090497744627, -0.03340509821068582, -0.02477977428319604, -0.011837376587003186, -0.005262088550145312, -0.004724671515796721, -0.012390109016054168, -0.0004707045657070282, 0.04837816891859575, 0.10761555847522004, 0.09062489663278252, -0.009810107174024259, -0.06126288570745345, 0.045040085967981446, 0.06909007071468716, -0.18262084442378046, -0.11737018776148196, -0.3637893649517432, -0.3118232967540006, -0.23921578206583885, -0.11508207764699296, -0.13058347834301529, 0.017788827040079655, 0.010101535550036029, -0.17650317303597196, -0.13722324714726594, -0.005475423575095326, -0.17557939242205503, -0.17446489449178598, -0.10279919432968071, 0.0035820086642094485, 0.0034091214324367186, -0.008308571164107163, 0.004408799486973242, 0.0021467584069594643, -0.002793325952757196, 0.04190104889581434, -0.016766443160015295, -0.0441222750874601, -0.14984782552189385, -0.34440411176372093, -0.21569600997673294, -0.13931190899194815, -0.3053479557016149, -0.37633424369470153, -0.24010872250927404, -0.049782994344405626, -0.1911416512148051, -0.17252996169973905, -0.09925557066564784, -0.008433449324198003, -0.14737323455405232, -0.064000609591229, -0.0381634418712363, -0.01578153575727068, -0.2117896947680881, -0.2035068830216163, -0.14762370957133544, -0.020403714687775833, -0.007929803847466516, 0.004137575995951357, -0.0038649937917443473, -0.011199556656463388, 0.0030085818858041967, -0.007472162795560056, -0.10250489600345179, -0.25983870688683997, -0.3013252697857108, -0.4545835571806881, -0.4484822834432324, -0.4763473236364782, -0.31039792483845985, -0.2680141017271612, -0.15981529830118965, -0.2040707115879427, -0.23825918992945788, -0.33151579134341214, -0.14028088739859182, -0.12392325820468489, -0.07825782129862573, -0.06476460887932912, -0.002449066522121545, -0.10950115736962027, -0.2929847737729841, -0.3744204933805018, -0.2163665864817943, -0.047031017137393286, 0.019431905508852973, 0.01918748189816034, 0.003470566073141678, -0.008025385443431877, -0.00043533578434978056, -0.03392353122314284, -0.1565967419546192, -0.33413856191958885, -0.2845831259037632, -0.3082679921506234, -0.2364199404110326, -0.1255590622731639, 0.05042217934900231, -0.061554201680045675, -0.11926625269438307, -0.11175734492375038, -0.20318409538115045, -0.21248823471871087, -0.06370869820881186, -0.16943567561239223, -0.19185819574380897, -0.05759227234946468, -0.08575896208811196, -0.26984929791727746, -0.4938643760841508, -0.4785237207083384, -0.20158344905329723, -0.013881435252266788, 0.021132330401773165, 0.00528456898157461, 0.0083861058686248, 0.00573916144871494, -0.017767294379522725, -0.015627909523924954, -0.20105190589472624, -0.22878579800891968, -0.051103418789537836, 0.0606062799241966, 0.0654278443745288, 0.06835359375610958, 0.027087235554917138, -0.09111850428006679, 0.0843770445221267, 0.016379460930211177, -0.054383356616745294, -0.09456028721886875, 0.09252049356738949, 0.01530097899486212, -0.0527809808076676, -0.0817165483716349, -0.28363044267810567, -0.4113946498276299, -0.4824328016012627, -0.38924823919964346, -0.08339776299273176, 0.15052538778486277, 0.01931758013011549, -0.009646905769169498, 0.010126918409093869, -0.0026042268804463823, -0.02875142294840412, -0.0028614820671442835, -0.06384042213652406, -0.002086877542465091, -0.03654014110218175, 0.08583800403169972, 0.06434797165465653, 0.037073986739148634, 0.10299347351458722, -0.03169597610147447, 0.12861874349489338, 0.027480421113420025, -0.051657166593682066, 0.035901108669768575, -0.04376817791959108, -0.07346231859142664, -0.2221915220014167, -0.18207751030729444, -0.339618102197146, -0.38439421508284877, -0.21166661163617417, -0.1254392054968777, 0.002416563978356177, 0.1824639556404663, 0.04367951816110386, 0.00965137088361886, -8.826922497278327e-05, -0.011532084044640813, -0.01421911456651134, -0.008870637478746177, 0.027759909545902618, 0.05124859633553411, 0.0727973735728985, 0.0630712768812956, 0.012905475580121985, 0.04103639014612028, 0.15876906858621445, 0.013604061190480455, 0.13631943804649166, -0.07695861259807793, -0.16338531145222884, -0.027647020745533143, -0.17231283194440103, -0.1265248265273017, -0.11951867821459648, -0.13088961496197316, -0.07387705598608929, 0.06199978341824867, 0.13509947937122443, 0.03787962622419846, -0.01433152875948217, 0.14320364741100028, 0.025365117793685898, 0.016497541978149583, 0.002174874428803887, -0.003170816457029032, 0.010878633113766342, -0.012821858241536277, 0.020626404159907786, 0.028248891364702697, 0.14231634927125755, 0.002395145509781131, 0.057519261437077335, 0.07741689579970958, -0.03432119314891091, 0.13377436017678665, 0.08969632859331189, 0.2039868832482723, -0.01693148638732218, -0.10620836810999994, -0.05607783349413003, 0.019232082039716224, 0.02257731039803962, -0.0061433517520113005, 0.15707169479543423, 0.13693119299407608, 0.03676875825354504, 0.023525962585785137, -0.06410369298217536, 0.06372944693803312, 0.007488661600628066, 0.004028168224572018, 0.004940837212700073, -0.010157897282718695, 0.019926080743127926, 0.07312642290627737, 0.06814383571897502, 0.06937430994460272, 0.2839279719798796, 0.14251002621162454, 0.17472541652087203, 0.16827987183748283, 0.15328281816765163, 0.21544669236125602, 0.1831988910401761, 0.15745328010960513, 0.0875790244634298, 0.13295474773506732, 0.16628541381385584, 0.0821049700371353, 0.09513881772604592, 0.019338746960209638, 0.1943634901398499, 0.236748058334105, 0.15195930277503553, 0.09979791084830564, 0.06019918172390543, 0.06363722210340496, 0.017342951710721727, 0.00885670003871758, 0.00022817526569943725, 0.008156712221271446, 0.040222631516054104, 0.09152563696880649, 0.10304215559578517, 0.1164082062749172, -0.004874494924273526, -0.022787018783567925, -0.059736950078348235, 0.006228718021930807, 0.03899300457880737, 0.09642992536355642, 0.07916325202440831, -0.03372693027536977, 0.08802548593627339, 0.14906503551876166, 0.10323317716326527, 0.13442254929133468, 0.08462441404365448, 0.13944453937096646, 0.07417120634200287, 0.0029910494878334776, 0.17893489370956034, 0.21998129860605647, 0.1719218883716059, 0.09092960271736382, 0.018368825271539085, -0.01111026829643312, -0.0010942303011701922, -0.008005899724115655, 0.0427269000614577, 0.09219262797964602, 0.12425351949726801, 0.10023816409942349, 0.027277545637726063, 0.05098918906359904, 0.175585304061976, 0.18052952215551474, -0.0489187069193067, 0.0592844603076577, 0.10012183424107692, -0.05812811491601458, 0.12167378148384116, -0.02207075256639469, -0.006911097688479236, 0.13574248992032284, 0.2634722819516356, 0.035101851763028984, 0.10290430838011935, 0.08233524929475071, 0.08325449264677498, 0.04542167859348433, 0.056669602470120185, 0.02640762217683179, -0.00637621781281007, 0.0014980334337845555, 0.00015280115963811703, -0.000634900905218934, -0.005247004522388235, 0.006170761999901496, 0.05271821169291038, 0.012197349221668544, 0.07901663535339706, 0.030310321526443664, 0.08075649398713326, 0.1424068254324919, 0.04253191758569116, 0.06976468294332862, 0.10446713774868074, 0.03304008122867996, -0.014961014615440847, 0.08029100014194517, -0.011386655450979171, -0.043644117528515096, 0.137565517884233, 0.19589130264847276, 0.1968376467170282, 0.24973681471777745, 0.16980629335024502, 0.12351401034115328, 0.07503788833524253, 0.03280881939893678, 0.004176778529860326, 0.0005577768113150638, 0.015195373851069385, 0.013980416689892769, -0.019339391369406794, -0.023997979387688852, -0.01367047594337477, -0.06569509010362247, -0.05359722076436169, -0.08868494185939882, -0.016361432246789227, -0.020783436531662338, -0.15104285904439374, 0.010748565105631916, 0.12865956200995618, -0.13681394181590326, -0.013407287182548746, 0.11638811514198104, 0.06192626219057515, 0.09234338615497717, 0.0680938726056488, 0.052826472971752914, 0.07711226225736367, 0.221035021957641, 0.17684310059373723, 0.11539962907617925, 0.09330058168437086, 0.032453376218498566, 0.0012877397404615753, 0.019804072047997813, 0.005460995186076541, 0.003798055606534586, 0.0024662525679574523, 0.0022045720606568785, -0.026208296300558702, -0.03605080213383377, -0.007510004519760534, -0.014378912109900988, 0.004887349324096099, -0.08222914627316301, -0.10458002919190769, -0.055700981474085254, 0.02507228791868345, -0.043617199485551275, 0.04658775315713877, 0.1010493720490545, 0.056019681308036515, 0.13868369587950433, 0.011759508716397315, -0.009370219840554942, -0.019341824592249566, -0.030224888709995467, -0.0058340491227995665, 0.006724448461976705, -0.004292079647193411, 0.0015187476951464727, -0.0032639538878454616, 0.001028714007903009, -0.007169519182960477, 0.009911420194814608, 0.008602682171052244, -0.009126675403714146, 0.0028247974085038327, -0.0048894808548627, -0.018767922807250752, -0.01944193955971375, -0.017657393665069347, -0.059598263748380745, -0.01581265140173785, -0.0643157745953859, -0.03502206972999769, -0.029267485511498454, -0.02420537817458645, -0.028677927725704867, -0.007117504852107945, -0.037472473091852615, -0.006982541271004097, -0.019370970226987992, -0.01067776790078368, -0.012263374643271562, -0.007545176196439406, -0.006751842785895885, 0.010823752116196975, 0.004561255356270379, -0.005581809633606095, 0.0036056726917449216, -0.001895892770687847, -0.002532615889271607, 0.013587170720862548, 0.0020656944721930536, -0.005906163106306886, 0.0015849322472941845, -0.0022297523935676713, -0.01429898622395887, 0.0006758210392473031, -0.0191815374174224, -0.008231942043443257, -0.0010763475275245339, 0.005717716449443486, 0.009725445434813204, 0.010721180846913588, 0.0037774884570246723, 0.011048861611481782, -0.004621632017984853, 0.0005892596093509198, -0.005432828718983492, -0.015314889188877997, -0.012889391130624575, -0.0050523073779758804, 0.015420098416262943, 0.006600773335120096, -0.006725857438071233, 0.003059696683236988, -0.013673425038214164], [-0.001705850708920834, -0.005306085300527606, -0.007552368362697555, -0.0024244614650949254, -0.008019770666753388, 0.002738992137255769, -0.004376720497490867, -0.012320509241584036, -0.0016243694548804548, 0.012661499945830455, 0.008635409983974473, -0.0015104949138714078, -0.0022111359553685975, 0.003494596081018322, 0.004170995899771779, -0.0012695538120853385, 0.0005656659922110361, -0.004264287258740153, -0.00397542835718029, -0.002049033683104377, -0.004385844685793892, -0.00041282987155068045, 0.0140952863394388, -0.005243649903149334, 0.002371374382151463, -0.0009577411236012571, 0.0005822934040122409, -0.013714050008385409, -0.009784601509852636, 0.003917229431701449, 0.0022119060265242472, 0.02016174090181781, 0.0008622162787993077, 0.0066695720535555605, -0.019409311764231777, -0.02896254632115134, -0.024844146849566307, -0.00040134668308979877, -0.00019364582350731705, -0.02902361164872484, -0.03950632610900004, -0.023120689254884474, -0.0007794620725968105, 0.005728233881492179, 0.01986428229672699, -0.0010340785442482106, 0.0037298303133990883, -0.01582505009769542, -0.001301184780652815, -0.006183699193063195, -0.006660039100407341, 0.01002467224857244, 0.012015303892991762, 0.0007058000915530411, -0.007335240088578089, 0.006091492341873405, -0.0011272419095185746, -0.0015708355695821423, -0.011183454602441781, -0.012162198601274606, 0.009424245283424325, 0.008486980495094155, 0.003997977136630628, -0.0225506019719596, -0.033937387515025355, -0.012713904694277599, -0.023643520643585998, -0.023147035034529577, -0.06040964191686172, -0.06385386372155667, -0.039405768851268154, -0.020847979957417977, -0.04670632994058025, -0.02679797199495515, -0.024545693551533767, -0.01516876537744159, 0.0076431853601954865, -0.005836233597806955, -0.019745998044228608, 0.007477929025764503, 0.01739616611651954, 0.004050717678293192, 0.0025854349924195144, -0.010626761346753279, -0.003808082396451326, 0.010463961252813712, -0.0072109200571495525, -0.02902768205103019, -0.008036664856326377, 0.00939355922787257, -0.030480934274261247, -0.04708696786155396, -0.05790545293430831, -0.06407270568127933, -0.06380761289155021, -0.06488754335494759, -0.0323221456705406, -0.10554153338546919, -0.09673191732159174, -0.09786574103317675, -0.04779059087333267, -0.03299747232866408, -0.04114723036085089, -0.012918802063263802, 0.00305328965854645, 0.03599003362694792, 0.019148327813550626, -0.007399861980922856, 0.005131074795726017, -0.0034894051069378033, 0.009830828735359778, 0.00384480178811117, 0.002556897366262958, -0.0054657238177417905, -0.002213813972606302, -0.0050638868257188874, 0.0030322836006917643, -0.002324128465475997, -0.040016798584080214, -0.054299677897133816, -0.11756764714930587, -0.1523380634644882, -0.10442430819176902, -0.10454406175706112, -0.10036557374916728, -0.09312438421158627, -0.10187881440089373, -0.1136232203174935, -0.05702413890721979, 0.03217812091367906, 0.03323420585252444, 0.0012399650159646718, 0.033524592222418735, 0.011128313756848996, 0.03182861923649613, 0.015118925141427344, 0.00717958890914499, -0.008185313596426215, -0.003453570425623062, -2.315773493201542e-05, 0.0025586897185864935, -0.0037270317272003646, -0.015839917347199285, -0.0011264949712955655, -0.02616693266474813, -0.015741555964185326, -0.03527573683197797, -0.024615411145099308, -0.02908286545979967, -0.025084953561941112, -0.06032308626264818, -0.170388894669285, -0.16360669734419353, -0.07424282389238025, -0.04294287171458275, -0.14700727375204672, -0.0811691583874164, -0.029490829410169835, -0.10180310580745568, -0.04511337413631497, 0.05818160402689202, 0.05000326001400885, -0.002513809444807318, 0.04483726668946866, 0.022760365499472884, -0.0019320732971444638, -0.004474079964577298, 0.004465365073823043, -0.004992801680945521, -0.012040454368464163, 0.00029088030351542886, 0.011151603959080738, -0.015051461354443125, -0.03918543904871215, -0.053236147831903724, -0.07322942734639461, -0.07688458834100212, -0.015477335304822147, -0.08315030201843107, -0.08713010813168466, -0.05014054643174456, 0.056736136249440926, 0.027747280679622337, -0.021419111172831157, -0.027266624601717086, -0.0011795734742100958, 0.016994506564239422, 0.057499008374622795, 0.11858869689980858, 0.008326049890001633, -0.008977814734865969, 0.04003464073047793, 0.017582209350558733, 0.018186270087107277, 0.011359580625532197, -0.007770359537339135, -0.00611020289264416, 0.0005571050624183083, 0.004930469890888614, 0.009370729530182724, -0.0737122922891506, -0.07703585666915923, 0.002385793965324277, -0.12073823296920527, -0.17907478741094587, -0.09296224462728626, -0.09486806169602433, -0.02721960512827902, 0.05281163953608626, 0.007513885400085265, -0.0966075802689854, 0.109494601420449, -0.05002312824475381, -0.0990333584462428, 0.06539916505573702, -0.007460569055266854, 0.04282466609978241, 0.01873714768582194, -0.021242007882123357, 0.05673101131111308, 0.028617772565554887, 0.009982439026098078, 0.01334540922619457, 0.0003801602360624569, -0.003179105465362141, 0.0002644907102665689, 0.007202412314252876, 0.008431449298999236, -0.03536718325746316, -0.024828756037110388, 0.03898546905680663, -0.15164640583979877, -0.10438919207744285, 0.013955263070692777, -0.031949542065140335, -0.05187418692152084, -0.06833719160620721, -0.09526364453553487, 0.009021126975697125, 0.05874876234111019, -0.11028820068202469, -0.042478189771616055, -0.047257254736641656, -0.05383717830621111, -0.013310319568703792, 0.07407375931089671, 0.01800914238566092, 0.0035505045147247107, 0.031384175434329004, -0.011309296954470971, -0.004318179655326095, 0.00844760916911898, 0.00774605120981553, -0.0107773936357751, 0.024289788038817307, 0.0869204635262032, 0.015009012587589098, -0.024537160736264985, -0.040166096752018085, -0.12226709695642524, 0.010007549055864765, 0.07243339768659339, -0.024063911691756347, 0.06151196418737279, -0.019640970575595613, 0.042098009922661064, 0.05634092802467464, -0.09711409543796909, -0.12793529027660783, 0.16071762036535842, 0.03699486539280218, -0.03756700643693206, 0.04089182764352766, 0.029708633793880848, -0.025406783286898296, 0.0028958250441166143, 0.026655087123648846, -0.006236700825987934, 0.0013099378484891326, 0.0037778952702443897, -0.004245885332047433, 0.0027748820938284713, -0.003017535017480521, -0.00507808210945768, -0.08554703891657338, -0.08920839631689978, 0.0325171781763281, 0.03283681545277211, -0.021777232602036418, 0.04231100995170911, -0.020888691006693567, -0.025484119285737412, 0.0433196476750265, -0.08383536352142991, -0.18987540898403432, -0.25384690731609416, -0.01539587801743934, 0.146822267813594, -0.06396848534042233, 0.06378568116816914, 0.04786653700829442, 0.03412432811653997, -0.009705914375361757, -0.042735128345503595, -0.06230640420804371, 0.01230267083231489, 0.008728139600960767, 0.009334928352688447, 0.003402811465906246, 0.016277288409719044, 0.018649978528823084, -0.012445460618866658, -0.08148032190135018, -0.0198587531141324, 0.16615774085760052, 0.031738669280365034, 0.015619016683652044, 0.018882627320516942, 0.09978957760170759, -0.05573311393749896, 0.11433293048344105, 0.13798274336459476, 0.053111884843576374, 0.03092900759306506, -0.13233112066232663, -0.06648675573256566, -0.03775952777338324, 0.021684660531105092, 0.10171426863134096, 0.07753121603144, 0.05207819133710279, 0.07085969555004236, -0.1904655707818396, -0.016303571285711027, 0.0037888225471780046, -0.0035442905700844673, -0.014682027979065947, -0.0030851298010859687, 0.018749888839292114, -0.038077164996656254, 0.026475085874863625, 0.127033440344077, 0.0011763086702556056, 0.08280639849545766, 0.1642925956530845, 0.14216329204612502, -0.05743291824936315, -0.1112027541102461, -0.036649107894477014, -0.031296957464646315, -0.12495272458364427, -0.0433238223968971, 0.018996533848386652, 0.02254299351615799, -0.040985269398278415, -0.004657502561750054, -0.005810934471084868, 0.027950853292781037, -0.0632179630954323, -0.07816394867306369, -0.14047601850320302, -0.021482076330928523, -0.004285023950337352, 0.01423037718027738, 0.003164235673933014, 0.009886850271006576, 0.013625501364083883, 0.002147707136699544, 0.05429624675628723, 0.21994960488076667, -0.04648591487580414, 0.016771522696671332, 0.02008535020942502, -0.1001090179578462, -0.07090900839042809, -0.12933093599331935, -0.05260453901700818, -0.02390294248705122, -0.10500188299720871, -0.10732195323321668, 0.09716674139030533, 0.04002229365587806, -0.018479688077165827, 0.0744645706410362, 0.110651681855082, 0.22392482801143043, 0.045613551649833745, -0.32094235423500966, -0.10291977039108288, -0.007563187116029065, -0.003974225221902989, 0.0014716387410512496, 0.003697463781572939, 0.007799413186054934, 0.011765024352799908, 0.026154696482929653, 0.11050401004496044, 0.15108806628804575, -0.031456305176890985, -0.035527805293576284, -0.05682983719066337, -0.1136454197586368, 0.05456719336487044, -0.04041035789793804, -0.09214959605342671, -0.08814140585312771, -0.08481448757694052, -0.17322380022209627, 0.09236064167370821, 0.1169172778540921, 0.16217537465439152, 0.1807872395301505, 0.12161347060739415, 0.031770683929343894, -0.02947961584237937, -0.1876029343198468, -0.1418165893647253, -0.035805167120280396, -0.0021990274564524103, 0.0038551939336958856, 0.0027317459712810463, -0.002261262827238729, -0.0018865650616936543, 0.05235227013842626, 0.03224728481931313, -0.0037450660006561657, 0.17392609875083323, -0.006319875441268539, -0.03564615694599323, -0.004706268872992002, 0.025531491223849075, -0.02482411228008915, -0.08494146279642593, -0.11498225868713216, -0.1264540162018016, -0.17930716745584133, 0.09593203101447871, 0.13115049888992952, -0.0375286810942068, 0.10671946272600986, -0.014052200011731962, -0.08029306946980642, 0.04094023439609464, -0.15481408321321277, -0.19718404432018424, -0.014839526333150686, 0.013049123119226968, 0.00023481443195628562, -0.0015418952822714032, -0.005824393510986705, -0.00909619896602831, 0.011511397620861417, -0.07656433234974308, 0.006584741099550803, 0.07076786686479068, 0.09318620793228691, 0.15315063873264284, 0.07740692605669823, -0.07786786547070129, -0.039943537582977105, -0.001169827243161064, 0.007368306490999434, -0.16225557948385214, -0.2815422960239199, 0.008275040423996651, 0.029471351022452408, 0.12027452238676174, 0.07824264238713158, 0.10622349717272452, -0.006486157009271712, 0.0724404926192729, -0.13422750288344198, -0.12093115078677683, 0.001042667001355592, 0.00649824247769759, -0.006221389819893491, -0.015073053221224184, 0.0014754644785213743, -0.013124620061938607, -0.07427970288293148, -0.10683111337586537, -0.08612343383430741, 0.09428244207112516, 0.16830961686026535, 0.05345800993038125, -0.004344162181095654, -0.10675334969012554, -0.03604100907688734, -0.007513287666411659, -0.07054691065258913, -0.14305713167010517, -0.06591223108918472, 0.08389439188978308, 0.13063326709700115, 0.2507169546024244, 0.004852196091614297, -0.003696826883513783, -0.0010080572991280259, 0.05982806813474277, -0.0724140046213928, -0.060005895414763526, 0.008242058132286132, -0.0019511941742501237, -0.03790837919171194, -0.0008876345094672936, -0.018748168000034638, -0.004211187523604718, -0.08357865950579264, -0.07190706940864236, -0.02022639265966421, 0.012649176131220928, 0.04492653938540674, 0.0762657429013349, -0.034096047396087535, -0.06364745948265611, 0.03695466089478984, -0.024157764668704777, -0.04322549061218098, -0.06875459977176121, -0.054222405181422934, 0.16540694864042366, 0.16084549145705612, 0.0658956035051495, -0.020488539850507213, 0.054445128307552826, 0.010412186053261989, -0.01909047126403727, -0.029602668483512888, -0.04897028359818285, -0.01982168604953245, -0.003953777207011094, -0.020360838144630664, 0.011878716982986327, 0.00035048921061595225, -0.0022130679759508453, -0.04617122054352, -0.05609452540281192, -0.02678480886249234, -0.00014113580752834567, 0.0018907990074201499, 0.035886690363865506, -0.0052249525598172235, -0.1062736230774554, 0.04241956572872021, -0.11851802370396615, -0.21301843370892565, -0.16592832883259043, 0.019727736752361603, 0.2300331349077476, -0.0750803294295887, 0.02177195481693561, 0.13291016866694533, 0.04079896659709232, -0.037337558360034495, -0.1334653927447182, 0.019499487831600264, 0.022567750550274213, 0.00900613527286344, 0.0070632747834023105, 0.0019768566797056203, -0.001135756482740681, -0.008936630295207429, -0.0007035096479037121, -0.04988066086191044, -0.07786463760126905, -0.06091858459536272, -0.11897385057966994, -0.033236167707436634, 0.0015772180394870883, -0.09612246815126028, 